{"learner":{"attributes":{"scikit_learn":"{\"_estimator_type\": \"regressor\"}"},"feature_names":["hour","month","day_of_week","temp_madrid","temp_barcelona","temp_seville","is_holiday","is_extreme_temp"],"feature_types":["float","float","float","float","float","float","float","float"],"gradient_booster":{"model":{"cats":{"enc":[],"feature_segments":[],"sorted_idx":[]},"gbtree_model_param":{"num_parallel_tree":"1","num_trees":"150"},"iteration_indptr":[0,1,2,3,4,5,6,7,8,9,10,11,12,13,14,15,16,17,18,19,20,21,22,23,24,25,26,27,28,29,30,31,32,33,34,35,36,37,38,39,40,41,42,43,44,45,46,47,48,49,50,51,52,53,54,55,56,57,58,59,60,61,62,63,64,65,66,67,68,69,70,71,72,73,74,75,76,77,78,79,80,81,82,83,84,85,86,87,88,89,90,91,92,93,94,95,96,97,98,99,100,101,102,103,104,105,106,107,108,109,110,111,112,113,114,115,116,117,118,119,120,121,122,123,124,125,126,127,128,129,130,131,132,133,134,135,136,137,138,139,140,141,142,143,144,145,146,147,148,149,150],"tree_info":[0,0,0,0,0,0,0,0,0,0,0,0,0,0,0,0,0,0,0,0,0,0,0,0,0,0,0,0,0,0,0,0,0,0,0,0,0,0,0,0,0,0,0,0,0,0,0,0,0,0,0,0,0,0,0,0,0,0,0,0,0,0,0,0,0,0,0,0,0,0,0,0,0,0,0,0,0,0,0,0,0,0,0,0,0,0,0,0,0,0,0,0,0,0,0,0,0,0,0,0,0,0,0,0,0,0,0,0,0,0,0,0,0,0,0,0,0,0,0,0,0,0,0,0,0,0,0,0,0,0,0,0,0,0,0,0,0,0,0,0,0,0,0,0,0,0,0,0,0,0],"trees":[{"base_weights":[-3.627522E-4,-4.37979E3,2.1909536E3,-4.759131E3,-1.721293E3,3.0805251E3,-3.5815548E1,-2.3886997E3,-5.1539736E3,-6.1121686E2,-4.4896475E3,3.2994692E3,-2.0365433E2,-2.1998206E3,2.7373474E2,-2.5944558E3,-6.56053E2,-4.9551436E3,-6.3425825E3,6.676314E2,-1.2506918E3,-3.7983147E3,-5.154096E3,4.69537E3,2.9558145E3,8.1218036E2,-5.264061E2,-1.2037632E3,-3.1892722E3,1.195751E3,-8.6824356E1,-1.5750933E3,-2.8410208E3,-4.044511E1,-1.642748E3,-5.190964E3,-3.7713147E3,-4.8698477E3,-6.630915E3,1.4685536E3,-6.6548584E1,-1.159421E3,-4.694837E3,-2.6986023E3,-4.2065474E3,-9.187292E2,-5.1998657E3,4.8527773E3,-1.5772561E3,2.6279836E3,4.6277676E3,1.593353E3,4.44012E2,-8.8983875E2,1.0809242E3,-2.2310513E3,-1.6926685E2,-4.0333328E3,-2.3261143E3,1.4440631E3,-9.181691E2,-4.270101E2,1.299345E3,-2.9248003E3,-1.3270018E3,-2.9574646E3,-1.6185192E3,-1.4428066E3,3.1635217E2,-1.242919E3,-2.2987354E3,-3.9647822E3,-5.496593E3,-3.483825E3,-5.181015E3,-5.0823E3,-3.318742E3,-6.8553853E3,-5.683323E3,1.5968031E3,-3.0666953E3,-8.595989E2,8.5576794E2,3.6020258E2,-1.3317815E3,-5.18601E3,8.452032E1,6.905469E1,-2.8846472E3,-4.7971216E3,-3.3420054E3,1.2203125E0,-1.390297E2,-5.2285137E3,-2.5079687E1,5.313494E3,3.953035E3,-6.502362E2,-6.240034E2,2.2822107E3,3.752783E3,5.5453354E3,3.3481902E3,1.713303E3,-1.4167291E3,-1.6790195E3,5.702734E2,-2.0407825E2,-1.1298593E3,1.793062E3,9.079813E1,-9.8076886E2,-2.712572E3,1.2427936E3,-7.326805E2,-4.0930144E3,5.936042E2,-2.4053433E3,1.5038048E2,2.1738772E3,6.7465424E2,-1.2751719E2,-1.5070419E3,-5.5389325E2,1.205051E3,2.2983894E3,3.3794806E2,-1.4917345E2,-3.4432486E2,-1.0301759E2,-2.6725748E2,-2.4032669E2,-3.1790042E2,-9.750518E1,-2.2193938E2,-3.8695314E0,-1.7638557E2,-1.6642233E2,5.5403072E1,-1.4118407E2,8.606042E1,-1.5205443E2,-3.471995E2,-4.196965E2,-2.3943144E2,-5.668928E2,-4.1035562E2,-2.3953465E2,-3.7139142E2,-2.466995E2,-5.249553E2,-4.1999292E2,-5.3047845E2,-3.4486606E2,-1.3030626E2,-6.346199E2,-7.0101056E2,-5.7321185E2,-2.9754752E2,2.1841275E2,9.75877E1,-4.704797E2,-9.5239586E1,-2.3383691E2,-4.764751E1,1.26433525E2,-2.885223E2,1.1145023E2,-3.3067394E1,-2.0099817E2,-1.15575676E2,-2.648075E2,-6.0197504E2,-1.17072914E2,1.8942032E2,-2.9915805E2,9.102032E1,-2.8431345E2,-5.0428342E2,-1.12762505E2,-3.978129E2,-6.025964E2,-4.904589E2,5.869755E2,4.7003964E2,5.9379584E2,3.818661E2,-4.780869E2,1.15355736E2,6.68482E1,2.4292247E2,3.9507028E2,1.0605503E2,4.5791504E2,6.606131E2,3.4852292E2,-1.3963141E2,2.165764E2,9.5703E1,-1.8972969E2,-2.2779688E1,-2.3661613E2,2.549375E1,1.7479091E2,1.7196781E1,-1.6843579E2,-7.2181E0,-1.2828429E2,2.102211E1,1.2910062E2,2.4641776E2,-2.6841002E1,4.3269833E1,1.0916339E2,-1.3028178E2,-3.397684E2,-1.9942235E2,1.5834425E2,-2.003475E2,-8.9421135E1,2.002634E2,5.9260418E1,-4.154142E2,1.1870313E1,7.717031E1,-2.0988834E2,-3.2735306E2,3.718403E2,1.76371E2,-1.800835E1,1.9707329E2,3.3410366E1,-1.06746414E2,-1.8640764E2,-1.2103851E2,1.0272318E1,-9.502954E1,5.0470013E1,1.9147354E2,1.5250682E2,2.9940488E2,-5.237033E1,6.73417E1],"categories":[],"categories_nodes":[],"categories_segments":[],"categories_sizes":[],"default_left":[0,0,0,0,0,0,0,0,0,0,0,0,0,0,0,0,0,0,0,0,0,0,0,0,0,0,0,0,0,0,0,0,0,0,0,0,0,0,0,0,0,0,0,0,0,0,0,0,0,0,0,0,0,0,0,0,0,0,0,0,0,0,0,0,0,0,0,0,0,0,0,0,0,0,0,0,0,0,0,0,0,0,0,0,0,0,0,0,0,0,0,0,0,0,0,0,0,0,0,0,0,0,0,0,0,0,0,0,0,0,0,0,0,0,0,0,0,0,0,0,0,0,0,0,0,0,0,0,0,0,0,0,0,0,0,0,0,0,0,0,0,0,0,0,0,0,0,0,0,0,0,0,0,0,0,0,0,0,0,0,0,0,0,0,0,0,0,0,0,0,0,0,0,0,0,0,0,0,0,0,0,0,0,0,0,0,0,0,0,0,0,0,0,0,0,0,0,0,0,0,0,0,0,0,0,0,0,0,0,0,0,0,0,0,0,0,0,0,0,0,0,0,0,0,0,0,0,0,0,0,0,0,0,0,0,0,0,0,0,0,0,0,0],"id":0,"left_children":[1,3,5,7,9,11,13,15,17,19,21,23,25,27,29,31,33,35,37,39,41,43,45,47,49,51,53,55,57,59,61,63,65,67,69,71,73,75,77,79,81,83,85,87,89,91,93,95,97,99,101,103,105,107,109,111,113,115,117,119,121,123,125,127,129,131,133,135,137,139,141,143,145,147,149,151,153,155,157,159,161,163,165,167,169,171,-1,173,175,177,179,-1,-1,181,-1,183,185,187,-1,189,191,193,195,197,199,201,203,205,207,209,211,213,215,217,219,221,223,225,-1,227,229,231,233,235,237,239,241,-1,-1,-1,-1,-1,-1,-1,-1,-1,-1,-1,-1,-1,-1,-1,-1,-1,-1,-1,-1,-1,-1,-1,-1,-1,-1,-1,-1,-1,-1,-1,-1,-1,-1,-1,-1,-1,-1,-1,-1,-1,-1,-1,-1,-1,-1,-1,-1,-1,-1,-1,-1,-1,-1,-1,-1,-1,-1,-1,-1,-1,-1,-1,-1,-1,-1,-1,-1,-1,-1,-1,-1,-1,-1,-1,-1,-1,-1,-1,-1,-1,-1,-1,-1,-1,-1,-1,-1,-1,-1,-1,-1,-1,-1,-1,-1,-1,-1,-1,-1,-1,-1,-1,-1,-1,-1,-1,-1,-1,-1,-1,-1,-1,-1,-1,-1],"loss_changes":[2.6789881E11,9.379709E9,3.6862132E10,7.6119245E9,3.5743258E9,9.561907E9,3.559613E9,4.136233E8,1.6186409E9,6.8123744E8,1.3338829E8,5.9661517E9,2.732091E8,6.51552E8,1.5456238E9,2.571694E8,7.586072E7,1.65154E9,3.910738E8,1.6356758E8,1.6902074E8,6.362112E7,2.7596288E7,2.437542E9,5.472305E9,5.7100736E7,3.701486E8,3.5351E8,2.3322752E8,6.8738586E8,1.5769633E9,6.476317E7,1.1436237E8,3.9484424E7,9.732424E6,1.8478694E9,3.8641254E8,3.8165504E7,1.3779763E8,8.225552E7,1.0752635E8,1.4244192E8,4.247885E7,2.4914816E7,4.523712E7,1.3339588E6,2.208256E7,9.7427456E8,2.5961432E8,3.2459612E9,1.9057828E9,2.5535056E7,3.794935E7,8.470125E7,8.233462E7,9.787981E7,1.3377145E8,4.8545536E7,5.429171E7,6.555182E8,6.405972E7,5.5668026E8,6.3217856E8,1.7895648E7,6.714195E7,8.603802E7,2.6834224E7,7.144364E6,3.0578666E7,1.258562E7,1.0242016E7,3.5422208E8,9.3485466E8,1.9947622E8,1.8114048E7,6.185984E6,1.529312E6,8.060928E6,4.745216E6,4.52776E7,9.37292E6,4.364343E7,1.0758225E8,2.9551706E7,5.581504E7,1.1566976E7,0E0,1.1268757E7,2.0983712E7,1.8790784E7,6.87623E7,0E0,0E0,1.2808704E7,0E0,5.1296256E8,1.9523789E8,3.929571E8,0E0,1.5174267E9,1.0433843E9,9.465037E8,4.51541E8,1.9142736E7,1.2818895E6,1.1234448E7,6.114613E7,2.6236472E7,7.858362E7,1.9730464E7,6.256807E6,3.3458116E7,5.228211E7,5.62526E7,5.4811304E7,4.972109E7,1.621345E5,3.676384E7,0E0,3.7354982E8,6.329129E8,2.6390588E7,6.111152E6,6.4872576E8,9.545712E7,1.6919757E8,9.776494E7,0E0,0E0,0E0,0E0,0E0,0E0,0E0,0E0,0E0,0E0,0E0,0E0,0E0,0E0,0E0,0E0,0E0,0E0,0E0,0E0,0E0,0E0,0E0,0E0,0E0,0E0,0E0,0E0,0E0,0E0,0E0,0E0,0E0,0E0,0E0,0E0,0E0,0E0,0E0,0E0,0E0,0E0,0E0,0E0,0E0,0E0,0E0,0E0,0E0,0E0,0E0,0E0,0E0,0E0,0E0,0E0,0E0,0E0,0E0,0E0,0E0,0E0,0E0,0E0,0E0,0E0,0E0,0E0,0E0,0E0,0E0,0E0,0E0,0E0,0E0,0E0,0E0,0E0,0E0,0E0,0E0,0E0,0E0,0E0,0E0,0E0,0E0,0E0,0E0,0E0,0E0,0E0,0E0,0E0,0E0,0E0,0E0,0E0,0E0,0E0,0E0,0E0,0E0,0E0,0E0,0E0,0E0,0E0,0E0,0E0,0E0,0E0,0E0,0E0,0E0,0E0],"parents":[2147483647,0,0,1,1,2,2,3,3,4,4,5,5,6,6,7,7,8,8,9,9,10,10,11,11,12,12,13,13,14,14,15,15,16,16,17,17,18,18,19,19,20,20,21,21,22,22,23,23,24,24,25,25,26,26,27,27,28,28,29,29,30,30,31,31,32,32,33,33,34,34,35,35,36,36,37,37,38,38,39,39,40,40,41,41,42,42,43,43,44,44,45,45,46,46,47,47,48,48,49,49,50,50,51,51,52,52,53,53,54,54,55,55,56,56,57,57,58,58,59,59,60,60,61,61,62,62,63,63,64,64,65,65,66,66,67,67,68,68,69,69,70,70,71,71,72,72,73,73,74,74,75,75,76,76,77,77,78,78,79,79,80,80,81,81,82,82,83,83,84,84,85,85,87,87,88,88,89,89,90,90,93,93,95,95,96,96,97,97,99,99,100,100,101,101,102,102,103,103,104,104,105,105,106,106,107,107,108,108,109,109,110,110,111,111,112,112,113,113,114,114,115,115,116,116,117,117,119,119,120,120,121,121,122,122,123,123,124,124,125,125,126,126],"right_children":[2,4,6,8,10,12,14,16,18,20,22,24,26,28,30,32,34,36,38,40,42,44,46,48,50,52,54,56,58,60,62,64,66,68,70,72,74,76,78,80,82,84,86,88,90,92,94,96,98,100,102,104,106,108,110,112,114,116,118,120,122,124,126,128,130,132,134,136,138,140,142,144,146,148,150,152,154,156,158,160,162,164,166,168,170,172,-1,174,176,178,180,-1,-1,182,-1,184,186,188,-1,190,192,194,196,198,200,202,204,206,208,210,212,214,216,218,220,222,224,226,-1,228,230,232,234,236,238,240,242,-1,-1,-1,-1,-1,-1,-1,-1,-1,-1,-1,-1,-1,-1,-1,-1,-1,-1,-1,-1,-1,-1,-1,-1,-1,-1,-1,-1,-1,-1,-1,-1,-1,-1,-1,-1,-1,-1,-1,-1,-1,-1,-1,-1,-1,-1,-1,-1,-1,-1,-1,-1,-1,-1,-1,-1,-1,-1,-1,-1,-1,-1,-1,-1,-1,-1,-1,-1,-1,-1,-1,-1,-1,-1,-1,-1,-1,-1,-1,-1,-1,-1,-1,-1,-1,-1,-1,-1,-1,-1,-1,-1,-1,-1,-1,-1,-1,-1,-1,-1,-1,-1,-1,-1,-1,-1,-1,-1,-1,-1,-1,-1,-1,-1,-1,-1],"split_conditions":[-5.053733E-1,-6.498248E-1,1.0004122E0,-1.5165339E0,1.0004122E0,1.6613994E0,-2.1647029E-1,1.154597E0,1.5006542E0,-9.1500944E-1,1.5006542E0,-9.2331785E-1,-8.6728454E-1,1.5006542E0,-4.1854694E-1,-1.0851059E0,4.95451E-1,-7.942763E-1,-1.3720824E0,-9.2331785E-1,6.747345E0,-6.395641E-1,-2.216426E0,6.747345E0,1.4797134E0,-1.2070717E0,1.1021589E0,-3.609218E-1,-3.609218E-1,1.6613994E0,1.4542435E0,-1.0005556E0,9.217876E-1,1.2295086E0,1.3793318E0,-1.3720824E0,1.0004122E0,9.3885154E-1,5.114059E-1,6.747345E0,1.3467124E0,-1.2009239E0,1.9979545E-1,-2.2557123E0,-2.1722768E-1,-1.2070717E0,1.2429928E0,-5.3321016E-1,-1.2326545E-1,1.3467124E0,4.95451E-1,6.747345E0,-1.5726404E0,-5.593808E-1,4.95451E-1,-6.395641E-1,-6.395641E-1,1.322399E0,1.4542435E0,1.5006542E0,-9.2331785E-1,1.5779223E0,1.5006542E0,-1.3863112E0,1.5006542E0,-7.0945215E-1,4.95451E-1,2.1169724E-1,-1.0005556E0,1.3574303E0,1.1151347E0,1.0047737E0,9.2656606E-1,-1.3555471E0,-2.2557123E0,-9.2331785E-1,1.5172322E0,-9.2331785E-1,1.318126E0,-1.2070717E0,-1.0005556E0,-1.2009239E0,6.747345E0,-7.167817E-5,-1.0005556E0,-1.0924431E0,8.452032E1,-2.014507E0,-4.2809302E-1,-1.4917465E0,3.0509928E-1,1.2203125E0,-1.390297E2,-1.1201264E0,-2.5079687E1,-1.2070717E0,-9.487034E-1,-1.0005556E0,-6.240034E2,-3.609218E-1,6.747345E0,1.8288016E0,6.747345E0,-1.0594362E0,-1.0005556E0,-1.3078221E0,-1.4032719E0,-8.4525764E-1,9.8664457E-1,1.7695754E0,-5.0031364E-1,-2.044499E0,-3.1305417E-1,-5.1143736E-1,1.412293E0,-2.141514E0,4.95451E-1,1.5207055E-1,1.5038048E2,-1.0581841E0,1.0835932E0,-8.9962935E-1,-8.113521E-1,5.0578725E-1,1.5006542E0,1.7538899E0,1.5513039E0,-1.4917345E2,-3.4432486E2,-1.0301759E2,-2.6725748E2,-2.4032669E2,-3.1790042E2,-9.750518E1,-2.2193938E2,-3.8695314E0,-1.7638557E2,-1.6642233E2,5.5403072E1,-1.4118407E2,8.606042E1,-1.5205443E2,-3.471995E2,-4.196965E2,-2.3943144E2,-5.668928E2,-4.1035562E2,-2.3953465E2,-3.7139142E2,-2.466995E2,-5.249553E2,-4.1999292E2,-5.3047845E2,-3.4486606E2,-1.3030626E2,-6.346199E2,-7.0101056E2,-5.7321185E2,-2.9754752E2,2.1841275E2,9.75877E1,-4.704797E2,-9.5239586E1,-2.3383691E2,-4.764751E1,1.26433525E2,-2.885223E2,1.1145023E2,-3.3067394E1,-2.0099817E2,-1.15575676E2,-2.648075E2,-6.0197504E2,-1.17072914E2,1.8942032E2,-2.9915805E2,9.102032E1,-2.8431345E2,-5.0428342E2,-1.12762505E2,-3.978129E2,-6.025964E2,-4.904589E2,5.869755E2,4.7003964E2,5.9379584E2,3.818661E2,-4.780869E2,1.15355736E2,6.68482E1,2.4292247E2,3.9507028E2,1.0605503E2,4.5791504E2,6.606131E2,3.4852292E2,-1.3963141E2,2.165764E2,9.5703E1,-1.8972969E2,-2.2779688E1,-2.3661613E2,2.549375E1,1.7479091E2,1.7196781E1,-1.6843579E2,-7.2181E0,-1.2828429E2,2.102211E1,1.2910062E2,2.4641776E2,-2.6841002E1,4.3269833E1,1.0916339E2,-1.3028178E2,-3.397684E2,-1.9942235E2,1.5834425E2,-2.003475E2,-8.9421135E1,2.002634E2,5.9260418E1,-4.154142E2,1.1870313E1,7.717031E1,-2.0988834E2,-3.2735306E2,3.718403E2,1.76371E2,-1.800835E1,1.9707329E2,3.3410366E1,-1.06746414E2,-1.8640764E2,-1.2103851E2,1.0272318E1,-9.502954E1,5.0470013E1,1.9147354E2,1.5250682E2,2.9940488E2,-5.237033E1,6.73417E1],"split_indices":[0,0,2,0,2,0,0,4,2,5,2,1,5,2,4,5,1,0,0,1,6,1,4,6,4,1,4,0,0,0,4,2,5,4,4,0,2,4,4,6,1,4,5,5,3,1,4,5,5,1,1,6,3,4,1,1,1,4,4,2,1,3,2,3,2,4,1,1,2,5,5,4,4,5,5,1,3,1,3,1,2,4,6,2,2,3,0,3,5,5,4,0,0,3,0,1,3,2,0,0,6,4,6,3,2,5,5,5,5,3,2,5,3,4,4,4,1,5,0,5,0,4,3,0,2,4,3,0,0,0,0,0,0,0,0,0,0,0,0,0,0,0,0,0,0,0,0,0,0,0,0,0,0,0,0,0,0,0,0,0,0,0,0,0,0,0,0,0,0,0,0,0,0,0,0,0,0,0,0,0,0,0,0,0,0,0,0,0,0,0,0,0,0,0,0,0,0,0,0,0,0,0,0,0,0,0,0,0,0,0,0,0,0,0,0,0,0,0,0,0,0,0,0,0,0,0,0,0,0,0,0,0,0,0,0,0,0,0,0,0,0,0,0],"split_type":[0,0,0,0,0,0,0,0,0,0,0,0,0,0,0,0,0,0,0,0,0,0,0,0,0,0,0,0,0,0,0,0,0,0,0,0,0,0,0,0,0,0,0,0,0,0,0,0,0,0,0,0,0,0,0,0,0,0,0,0,0,0,0,0,0,0,0,0,0,0,0,0,0,0,0,0,0,0,0,0,0,0,0,0,0,0,0,0,0,0,0,0,0,0,0,0,0,0,0,0,0,0,0,0,0,0,0,0,0,0,0,0,0,0,0,0,0,0,0,0,0,0,0,0,0,0,0,0,0,0,0,0,0,0,0,0,0,0,0,0,0,0,0,0,0,0,0,0,0,0,0,0,0,0,0,0,0,0,0,0,0,0,0,0,0,0,0,0,0,0,0,0,0,0,0,0,0,0,0,0,0,0,0,0,0,0,0,0,0,0,0,0,0,0,0,0,0,0,0,0,0,0,0,0,0,0,0,0,0,0,0,0,0,0,0,0,0,0,0,0,0,0,0,0,0,0,0,0,0,0,0,0,0,0,0,0,0,0,0,0,0,0,0],"sum_hessian":[2.7916E4,9.308E3,1.8608E4,8.145E3,1.163E3,1.3296E4,5.312E3,1.164E3,6.981E3,8.31E2,3.32E2,1.2465E4,8.31E2,6.64E2,4.648E3,1.04E3,1.24E2,5.985E3,9.96E2,2.77E2,5.54E2,1.66E2,1.66E2,2.46E3,1.0005E4,2E2,6.31E2,3.32E2,3.32E2,1.306E3,3.342E3,2.04E2,8.36E2,7.7E1,4.7E1,4.988E3,9.97E2,1.66E2,8.3E2,1.32E2,1.45E2,5.41E2,1.3E1,4.7E1,1.19E2,2E0,1.64E2,2.4E3,6E1,8.367E3,1.638E3,6.3E1,1.37E2,5.15E2,1.16E2,1.66E2,1.66E2,1.66E2,1.66E2,1.169E3,1.37E2,2.684E3,6.58E2,3E1,1.74E2,7.62E2,7.4E1,1.5E1,6.2E1,3.1E1,1.6E1,9.98E2,3.99E3,8.31E2,1.66E2,1.44E2,2.2E1,6.66E2,1.64E2,1.29E2,3E0,7.8E1,6.7E1,5.5E1,4.86E2,1.2E1,1E0,3E0,4.4E1,6.8E1,5.1E1,1E0,1E0,1.63E2,1E0,1.584E3,8.16E2,5.1E1,9E0,6.402E3,1.965E3,9.52E2,6.86E2,6.1E1,2E0,7E0,1.3E2,1.34E2,3.81E2,6.7E1,4.9E1,4.7E1,1.19E2,4.7E1,1.19E2,1.64E2,2E0,1.63E2,3E0,5.99E2,5.7E2,5.9E1,7.8E1,2.491E3,1.93E2,3.22E2,3.36E2,9E0,2.1E1,1.44E2,3E1,2.21E2,5.41E2,3.7E1,3.7E1,3E0,1.2E1,6E0,5.6E1,2.9E1,2E0,1.1E1,5E0,8.68E2,1.3E2,3.548E3,4.42E2,1.47E2,6.84E2,5E0,1.61E2,3.3E1,1.11E2,2E1,2E0,1.65E2,5.01E2,1.6E2,4E0,6.5E1,6.4E1,1E0,2E0,1.5E1,6.3E1,6.1E1,6E0,2.6E1,2.9E1,9.8E1,3.88E2,4E0,8E0,2E0,1E0,4.3E1,1E0,9E0,5.9E1,1.2E1,3.9E1,4.2E1,1.21E2,8.26E2,7.58E2,4.9E1,7.67E2,1.5E1,3.6E1,5.35E2,5.867E3,1.83E3,1.35E2,5.01E2,4.51E2,6.67E2,1.9E1,3.7E1,2.4E1,1E0,1E0,5E0,2E0,3.2E1,9.8E1,1E1,1.24E2,3.42E2,3.9E1,4E1,2.7E1,2.4E1,2.5E1,6E0,4.1E1,5.9E1,6E1,4.3E1,4E0,1.13E2,6E0,2E0,1.62E2,1E0,1E0,1.23E2,4E1,1.24E2,4.75E2,3.44E2,2.26E2,4E1,1.9E1,3.3E1,4.5E1,9.38E2,1.553E3,9.8E1,9.5E1,1.54E2,1.68E2,9.4E1,2.42E2],"tree_param":{"num_deleted":"0","num_feature":"8","num_nodes":"243","size_leaf_vector":"1"}},{"base_weights":[-3.7424293E-1,-3.9432766E3,1.9720305E3,-4.284352E3,-1.5529476E3,2.7727268E3,-3.226683E1,-2.1520505E3,-4.6395293E3,-5.5215466E2,-4.0487637E3,2.9697783E3,-1.8306053E2,-1.981561E3,2.465701E2,-2.3792185E3,-8.6200323E2,-4.460134E3,-5.711968E3,5.9837463E2,-1.1274609E3,-3.4270762E3,-4.6462075E3,3.8824456E3,2.5357183E3,7.313632E2,-4.7359238E2,-1.0848627E3,-2.8723088E3,1.3216885E3,-2.0471804E1,-1.452052E3,-2.6578977E3,-2.2969055E2,-1.6354797E3,-4.6721953E3,-3.395569E3,-4.3914E3,-5.9704795E3,1.3198208E3,-6.2931667E1,-1.0439181E3,-4.2812295E3,-2.1723618E3,-3.7198613E3,-8.7279297E2,-4.686656E3,4.055902E3,-7.1047656E2,2.0758843E3,4.0043752E3,1.1468645E3,1.5083372E2,-8.213185E2,9.155651E2,-2.0113019E3,-1.5192732E2,-3.631599E3,-2.0958188E3,2.1310283E3,5.094941E2,-2.76285E2,1.1701194E3,-1.1129004E3,-1.9905267E3,-3.4731814E3,-2.5204463E3,-1.1204406E3,2.8295535E2,-2.6390798E3,-1.3978148E3,-3.5689631E3,-4.947178E3,-3.1361772E3,-4.6675347E3,-4.626224E3,-3.21197E3,-6.1215894E3,-4.843007E3,1.4395538E3,-2.901455E3,-7.7720154E2,7.678073E2,3.2558206E2,-1.1992529E3,-4.734085E3,8.0294334E1,8.023584E1,-2.3929434E3,-4.1749575E3,-2.945564E3,1.1592773E0,-1.3207823E2,-4.7123276E3,-2.3825684E1,2.173722E3,4.283184E3,-2.943994E3,9.518997E1,3.3574287E3,1.9460161E3,4.7808926E3,2.926653E3,1.2019202E3,-1.3458926E3,1.4222477E3,-1.8793518E2,2.366677E1,-9.968253E2,1.448571E3,3.7543884E1,-8.831325E2,-2.4458088E3,1.1176396E3,-6.5848804E2,-4.1043027E3,-2.9007405E3,-2.1680845E3,1.3910191E2,2.773734E3,7.7142444E2,-1.655652E2,1.7182783E3,3.161701E2,-5.8441266E2,2.0699504E3,3.041978E2,-2.1467188E2,-8.98648E1,-1.7546324E2,-2.754846E2,-3.519107E2,6.9745605E1,-2.3390718E2,-3.377284E2,-7.590203E1,-2.509322E2,5.5053986E1,-1.19029655E2,-2.758352E2,-5.4426952E1,-1.908678E2,-1.16647705E2,-3.7777505E2,-2.1567105E2,-5.1021954E2,-3.6941272E2,-2.1908118E2,-3.351098E2,-2.6721542E2,-4.7511252E2,-3.7922897E2,-4.8543735E2,-3.307672E2,-1.2161914E2,-6.22684E2,-5.630044E2,-2.0142871E2,-4.9077255E2,7.699467E1,1.8904529E2,-4.4695566E2,-8.8890236E1,-2.119148E2,-4.295712E1,1.1399408E2,-2.6379193E2,6.6468834E1,-9.731981E1,-1.2722433E2,2.618627E1,-2.4362297E2,-5.484662E2,-1.09268105E2,1.7994933E2,-2.5303543E2,8.646934E1,-3.151516E2,-4.7352548E2,-8.931728E1,-3.5902618E2,-5.437382E2,-4.41815E2,3.341913E2,1.3547598E2,4.6008224E2,3.018799E2,-6.06707E2,-1.9423271E2,3.1972086E2,-1.749418E2,3.4635605E2,-3.89059E2,5.331741E1,2.0449338E2,4.0401514E2,5.9469794E2,3.0361642E2,-1.1239496E2,1.5470096E2,7.834487E1,-1.8024316E2,-2.1640722E1,8.658041E0,1.9293059E2,-3.1738462E1,9.8546486E1,-1.6202785E2,1.6371494E1,-1.10384415E2,4.4773192E0,4.5590492E1,2.1884544E2,2.1322437E1,-6.689324E1,-3.293525E1,-2.0794917E2,-3.063579E2,-1.7980707E2,1.4286974E2,-1.8431969E2,-7.8311325E1,2.3645142E2,-3.64595E2,-5.9643365E2,-6.439339E1,-3.569891E2,-1.8906873E2,-2.954161E2,3.0429724E2,1.2350997E1,1.8192259E2,3.0504068E1,2.6019226E1,-1.6094536E2,2.2246199E2,-3.129485E1,5.3310577E1,-1.5615323E2,-7.616376E1,1.0857932E2,4.8212775E2,1.8724329E2,-5.338817E0,1.0327368E2],"categories":[],"categories_nodes":[],"categories_segments":[],"categories_sizes":[],"default_left":[0,0,0,0,0,0,0,0,0,0,0,0,0,0,0,0,0,0,0,0,0,0,0,0,0,0,0,0,0,0,0,0,0,0,0,0,0,0,0,0,0,0,0,0,0,0,0,0,0,0,0,0,0,0,0,0,0,0,0,0,0,0,0,0,0,0,0,0,0,0,0,0,0,0,0,0,0,0,0,0,0,0,0,0,0,0,0,0,0,0,0,0,0,0,0,0,0,0,0,0,0,0,0,0,0,0,0,0,0,0,0,0,0,0,0,0,0,0,0,0,0,0,0,0,0,0,0,0,0,0,0,0,0,0,0,0,0,0,0,0,0,0,0,0,0,0,0,0,0,0,0,0,0,0,0,0,0,0,0,0,0,0,0,0,0,0,0,0,0,0,0,0,0,0,0,0,0,0,0,0,0,0,0,0,0,0,0,0,0,0,0,0,0,0,0,0,0,0,0,0,0,0,0,0,0,0,0,0,0,0,0,0,0,0,0,0,0,0,0,0,0,0,0,0,0,0,0,0,0,0,0,0,0,0,0,0,0,0,0,0,0,0,0,0,0],"id":1,"left_children":[1,3,5,7,9,11,13,15,17,19,21,23,25,27,29,31,33,35,37,39,41,43,45,47,49,51,53,55,57,59,61,63,65,67,69,71,73,75,77,79,81,83,85,87,89,91,93,95,97,99,101,103,105,107,109,111,113,115,117,119,121,123,125,127,129,131,133,135,137,139,141,143,145,147,149,151,153,155,157,159,161,163,165,167,169,171,-1,173,175,177,179,-1,-1,181,-1,183,185,187,189,191,193,195,197,199,201,203,205,207,209,211,213,215,217,219,221,223,225,227,-1,229,231,233,235,237,239,241,243,-1,-1,-1,-1,-1,-1,-1,-1,-1,-1,-1,-1,-1,-1,-1,-1,-1,-1,-1,-1,-1,-1,-1,-1,-1,-1,-1,-1,-1,-1,-1,-1,-1,-1,-1,-1,-1,-1,-1,-1,-1,-1,-1,-1,-1,-1,-1,-1,-1,-1,-1,-1,-1,-1,-1,-1,-1,-1,-1,-1,-1,-1,-1,-1,-1,-1,-1,-1,-1,-1,-1,-1,-1,-1,-1,-1,-1,-1,-1,-1,-1,-1,-1,-1,-1,-1,-1,-1,-1,-1,-1,-1,-1,-1,-1,-1,-1,-1,-1,-1,-1,-1,-1,-1,-1,-1,-1,-1,-1,-1,-1,-1,-1,-1,-1,-1,-1,-1],"loss_changes":[2.1711828E11,7.5827937E9,2.9864436E10,6.159368E9,2.905198E9,7.7452657E9,2.888291E9,3.3936077E8,1.3177979E9,5.5138106E8,1.0776064E8,4.928602E9,2.2138315E8,5.2804096E8,1.3347628E9,2.5193882E8,8.570225E7,1.3354926E9,3.1414067E8,1.3271601E8,1.4175923E8,5.326848E7,2.1398784E7,3.2023224E9,5.6989696E9,4.831037E7,3.0603725E8,2.8750896E8,1.8871936E8,6.069549E8,1.1348426E9,3.997104E7,7.641344E7,4.5067692E7,1.515416E7,1.495851E9,3.1463936E8,3.1393024E7,1.1192934E8,7.139845E7,8.722903E7,1.1569069E8,3.6034704E7,1.7085968E7,3.4921344E7,1.2038975E6,1.7719808E7,1.6462193E9,2.6480237E8,1.06495386E9,1.671465E9,1.7674816E7,3.6878108E7,7.506374E7,5.9380424E7,7.970291E7,1.08135784E8,4.578944E7,4.509613E7,4.0244134E8,3.78093E8,5.600712E8,5.128519E8,2.9966576E7,1.1032512E7,2.2948992E7,9.373722E7,1.6166292E7,2.5491128E7,1.996656E6,5.573584E6,2.8641792E8,7.5638374E8,1.6170291E8,1.5158784E7,7.656448E6,1.89824E6,2.660352E6,8.970752E6,3.779472E7,8.650548E6,3.594328E7,8.918925E7,2.5310642E7,5.2270464E7,9.059424E6,0E0,1.0032456E7,1.6064672E7,3.2098176E7,6.6921376E7,0E0,0E0,1.0957056E7,0E0,3.9633165E8,1.3724918E9,1.1021872E8,6.292922E8,4.6809856E8,8.161956E8,9.857208E8,3.7868646E8,1.5395136E7,1.156903E6,1.2023656E7,1.0641697E7,2.0525638E7,4.6755584E7,5.7024384E7,6.2242235E6,3.1116064E7,4.250995E7,4.684095E7,4.7060748E7,6.2657024E7,1.0190112E8,3.017568E7,0E0,2.2367667E8,7.27467E7,1.8361315E8,1.7142634E8,4.2854006E8,5.981593E8,1.6650227E8,8.78488E7,0E0,0E0,0E0,0E0,0E0,0E0,0E0,0E0,0E0,0E0,0E0,0E0,0E0,0E0,0E0,0E0,0E0,0E0,0E0,0E0,0E0,0E0,0E0,0E0,0E0,0E0,0E0,0E0,0E0,0E0,0E0,0E0,0E0,0E0,0E0,0E0,0E0,0E0,0E0,0E0,0E0,0E0,0E0,0E0,0E0,0E0,0E0,0E0,0E0,0E0,0E0,0E0,0E0,0E0,0E0,0E0,0E0,0E0,0E0,0E0,0E0,0E0,0E0,0E0,0E0,0E0,0E0,0E0,0E0,0E0,0E0,0E0,0E0,0E0,0E0,0E0,0E0,0E0,0E0,0E0,0E0,0E0,0E0,0E0,0E0,0E0,0E0,0E0,0E0,0E0,0E0,0E0,0E0,0E0,0E0,0E0,0E0,0E0,0E0,0E0,0E0,0E0,0E0,0E0,0E0,0E0,0E0,0E0,0E0,0E0,0E0,0E0,0E0,0E0,0E0,0E0,0E0,0E0],"parents":[2147483647,0,0,1,1,2,2,3,3,4,4,5,5,6,6,7,7,8,8,9,9,10,10,11,11,12,12,13,13,14,14,15,15,16,16,17,17,18,18,19,19,20,20,21,21,22,22,23,23,24,24,25,25,26,26,27,27,28,28,29,29,30,30,31,31,32,32,33,33,34,34,35,35,36,36,37,37,38,38,39,39,40,40,41,41,42,42,43,43,44,44,45,45,46,46,47,47,48,48,49,49,50,50,51,51,52,52,53,53,54,54,55,55,56,56,57,57,58,58,59,59,60,60,61,61,62,62,63,63,64,64,65,65,66,66,67,67,68,68,69,69,70,70,71,71,72,72,73,73,74,74,75,75,76,76,77,77,78,78,79,79,80,80,81,81,82,82,83,83,84,84,85,85,87,87,88,88,89,89,90,90,93,93,95,95,96,96,97,97,98,98,99,99,100,100,101,101,102,102,103,103,104,104,105,105,106,106,107,107,108,108,109,109,110,110,111,111,112,112,113,113,114,114,115,115,116,116,117,117,119,119,120,120,121,121,122,122,123,123,124,124,125,125,126,126],"right_children":[2,4,6,8,10,12,14,16,18,20,22,24,26,28,30,32,34,36,38,40,42,44,46,48,50,52,54,56,58,60,62,64,66,68,70,72,74,76,78,80,82,84,86,88,90,92,94,96,98,100,102,104,106,108,110,112,114,116,118,120,122,124,126,128,130,132,134,136,138,140,142,144,146,148,150,152,154,156,158,160,162,164,166,168,170,172,-1,174,176,178,180,-1,-1,182,-1,184,186,188,190,192,194,196,198,200,202,204,206,208,210,212,214,216,218,220,222,224,226,228,-1,230,232,234,236,238,240,242,244,-1,-1,-1,-1,-1,-1,-1,-1,-1,-1,-1,-1,-1,-1,-1,-1,-1,-1,-1,-1,-1,-1,-1,-1,-1,-1,-1,-1,-1,-1,-1,-1,-1,-1,-1,-1,-1,-1,-1,-1,-1,-1,-1,-1,-1,-1,-1,-1,-1,-1,-1,-1,-1,-1,-1,-1,-1,-1,-1,-1,-1,-1,-1,-1,-1,-1,-1,-1,-1,-1,-1,-1,-1,-1,-1,-1,-1,-1,-1,-1,-1,-1,-1,-1,-1,-1,-1,-1,-1,-1,-1,-1,-1,-1,-1,-1,-1,-1,-1,-1,-1,-1,-1,-1,-1,-1,-1,-1,-1,-1,-1,-1,-1,-1,-1,-1,-1,-1],"split_conditions":[-5.053733E-1,-6.498248E-1,1.0004122E0,-1.5165339E0,1.0004122E0,1.6613994E0,-2.1647029E-1,9.86795E-1,1.5006542E0,-9.1500944E-1,1.5006542E0,-4.0955755E-1,-8.6728454E-1,1.5006542E0,-9.2331785E-1,-9.2331785E-1,4.95451E-1,-7.942763E-1,-1.3720824E0,-9.2331785E-1,6.747345E0,-9.2331785E-1,-2.216426E0,6.747345E0,1.3553602E0,-9.2331785E-1,1.342615E0,-3.609218E-1,-3.609218E-1,1.5006542E0,1.4542435E0,-1.0581841E0,-1.0005556E0,1.2295086E0,-1.0005556E0,-1.3720824E0,1.0004122E0,7.2280645E-1,8.2648414E-1,6.747345E0,1.3467124E0,-1.2009239E0,1.9979545E-1,-2.2557123E0,-2.1722768E-1,-1.2070717E0,1.2429928E0,-3.609218E-1,-5.0031364E-1,-9.2331785E-1,4.95451E-1,6.747345E0,-1.3078221E0,-7.408167E-1,4.95451E-1,-6.395641E-1,-6.395641E-1,-4.1633388E-1,1.4542435E0,-5.047072E-1,1.0835932E0,-1.18900485E-1,1.5006542E0,-1.0005556E0,-6.0908055E-1,1.5172322E0,1.5006542E0,1.0004122E0,1.5006542E0,1.6269003E0,8.04311E-1,1.0047737E0,9.2656606E-1,-1.3078221E0,-2.044499E0,-9.2331785E-1,1.5172322E0,2.556576E-1,2.565812E-1,-1.4388433E0,-1.0005556E0,-1.2009239E0,6.747345E0,-4.8701492E-1,8.070513E-1,-1.0924431E0,8.0294334E1,-2.014507E0,-4.2809302E-1,-9.8809874E-1,3.0509928E-1,1.1592773E0,-1.3207823E2,-1.1201264E0,-2.3825684E1,-1.0988115E0,-2.7500618E-1,-1.381245E0,5.001703E-1,6.747345E0,-3.609218E-1,1.8288016E0,6.747345E0,-1.2070717E0,-1.0005556E0,-1.4127699E0,-8.9298254E-1,-8.4525764E-1,9.2986214E-1,1.2774521E0,1.412293E0,-9.1708064E-1,-3.1305417E-1,-5.1143736E-1,1.4797134E0,-4.0955755E-1,-3.9248288E-1,1.5207055E-1,1.3910191E2,1.6613994E0,5.0578725E-1,-3.393654E-1,1.6613994E0,1.6613994E0,1.5779223E0,9.8273325E-1,1.9037132E0,-2.1467188E2,-8.98648E1,-1.7546324E2,-2.754846E2,-3.519107E2,6.9745605E1,-2.3390718E2,-3.377284E2,-7.590203E1,-2.509322E2,5.5053986E1,-1.19029655E2,-2.758352E2,-5.4426952E1,-1.908678E2,-1.16647705E2,-3.7777505E2,-2.1567105E2,-5.1021954E2,-3.6941272E2,-2.1908118E2,-3.351098E2,-2.6721542E2,-4.7511252E2,-3.7922897E2,-4.8543735E2,-3.307672E2,-1.2161914E2,-6.22684E2,-5.630044E2,-2.0142871E2,-4.9077255E2,7.699467E1,1.8904529E2,-4.4695566E2,-8.8890236E1,-2.119148E2,-4.295712E1,1.1399408E2,-2.6379193E2,6.6468834E1,-9.731981E1,-1.2722433E2,2.618627E1,-2.4362297E2,-5.484662E2,-1.09268105E2,1.7994933E2,-2.5303543E2,8.646934E1,-3.151516E2,-4.7352548E2,-8.931728E1,-3.5902618E2,-5.437382E2,-4.41815E2,3.341913E2,1.3547598E2,4.6008224E2,3.018799E2,-6.06707E2,-1.9423271E2,3.1972086E2,-1.749418E2,3.4635605E2,-3.89059E2,5.331741E1,2.0449338E2,4.0401514E2,5.9469794E2,3.0361642E2,-1.1239496E2,1.5470096E2,7.834487E1,-1.8024316E2,-2.1640722E1,8.658041E0,1.9293059E2,-3.1738462E1,9.8546486E1,-1.6202785E2,1.6371494E1,-1.10384415E2,4.4773192E0,4.5590492E1,2.1884544E2,2.1322437E1,-6.689324E1,-3.293525E1,-2.0794917E2,-3.063579E2,-1.7980707E2,1.4286974E2,-1.8431969E2,-7.8311325E1,2.3645142E2,-3.64595E2,-5.9643365E2,-6.439339E1,-3.569891E2,-1.8906873E2,-2.954161E2,3.0429724E2,1.2350997E1,1.8192259E2,3.0504068E1,2.6019226E1,-1.6094536E2,2.2246199E2,-3.129485E1,5.3310577E1,-1.5615323E2,-7.616376E1,1.0857932E2,4.8212775E2,1.8724329E2,-5.338817E0,1.0327368E2],"split_indices":[0,0,2,0,2,0,0,4,2,5,2,4,5,2,1,1,1,0,0,1,6,1,4,6,4,1,3,0,0,2,4,5,2,4,2,0,2,4,4,6,1,4,5,5,3,1,4,0,2,1,1,6,5,4,1,1,1,3,4,3,0,4,2,2,5,3,2,2,2,3,5,4,4,5,5,1,3,4,3,4,2,4,6,5,3,3,0,3,5,3,4,0,0,3,0,5,5,5,2,6,0,4,6,1,2,3,5,5,4,4,4,3,3,4,4,4,5,5,0,0,0,4,0,0,3,3,4,0,0,0,0,0,0,0,0,0,0,0,0,0,0,0,0,0,0,0,0,0,0,0,0,0,0,0,0,0,0,0,0,0,0,0,0,0,0,0,0,0,0,0,0,0,0,0,0,0,0,0,0,0,0,0,0,0,0,0,0,0,0,0,0,0,0,0,0,0,0,0,0,0,0,0,0,0,0,0,0,0,0,0,0,0,0,0,0,0,0,0,0,0,0,0,0,0,0,0,0,0,0,0,0,0,0,0,0,0,0,0,0,0,0,0,0,0,0],"split_type":[0,0,0,0,0,0,0,0,0,0,0,0,0,0,0,0,0,0,0,0,0,0,0,0,0,0,0,0,0,0,0,0,0,0,0,0,0,0,0,0,0,0,0,0,0,0,0,0,0,0,0,0,0,0,0,0,0,0,0,0,0,0,0,0,0,0,0,0,0,0,0,0,0,0,0,0,0,0,0,0,0,0,0,0,0,0,0,0,0,0,0,0,0,0,0,0,0,0,0,0,0,0,0,0,0,0,0,0,0,0,0,0,0,0,0,0,0,0,0,0,0,0,0,0,0,0,0,0,0,0,0,0,0,0,0,0,0,0,0,0,0,0,0,0,0,0,0,0,0,0,0,0,0,0,0,0,0,0,0,0,0,0,0,0,0,0,0,0,0,0,0,0,0,0,0,0,0,0,0,0,0,0,0,0,0,0,0,0,0,0,0,0,0,0,0,0,0,0,0,0,0,0,0,0,0,0,0,0,0,0,0,0,0,0,0,0,0,0,0,0,0,0,0,0,0,0,0,0,0,0,0,0,0,0,0,0,0,0,0,0,0,0,0,0,0],"sum_hessian":[2.7916E4,9.308E3,1.8608E4,8.145E3,1.163E3,1.3296E4,5.312E3,1.164E3,6.981E3,8.31E2,3.32E2,1.2465E4,8.31E2,6.64E2,4.648E3,9.89E2,1.75E2,5.985E3,9.96E2,2.77E2,5.54E2,1.66E2,1.66E2,4.015E3,8.45E3,2E2,6.31E2,3.32E2,3.32E2,9.24E2,3.724E3,2.3E2,7.59E2,9.7E1,7.8E1,4.988E3,9.97E2,1.66E2,8.3E2,1.32E2,1.45E2,5.41E2,1.3E1,3.3E1,1.33E2,2E0,1.64E2,3.869E3,1.46E2,6.437E3,2.013E3,1.16E2,8.4E1,5.05E2,1.26E2,1.66E2,1.66E2,1.66E2,1.66E2,4.62E2,4.62E2,3.066E3,6.58E2,1.43E2,8.7E1,1.06E2,6.53E2,3.5E1,6.2E1,1.3E1,6.5E1,9.98E2,3.99E3,8.31E2,1.66E2,1.36E2,3E1,7.28E2,1.02E2,1.29E2,3E0,7.8E1,6.7E1,5.5E1,4.86E2,1.2E1,1E0,3E0,3E1,8.1E1,5.2E1,1E0,1E0,1.63E2,1E0,4.18E2,3.451E3,3.8E1,1.08E2,5.9E2,5.847E3,1.168E3,8.45E2,1.14E2,2E0,1.7E1,6.7E1,8.7E1,4.18E2,7.8E1,4.8E1,4.7E1,1.19E2,4.7E1,1.19E2,9.8E1,6.8E1,1.63E2,3E0,3.13E2,1.49E2,2.97E2,1.65E2,1.049E3,2.017E3,3.22E2,3.36E2,2.3E1,1.2E2,6.9E1,1.8E1,1.05E2,1E0,5.42E2,1.11E2,2.9E1,6E0,5.3E1,9E0,1.2E1,1E0,1.8E1,4.7E1,8.68E2,1.3E2,3.548E3,4.42E2,1.56E2,6.75E2,8E0,1.58E2,3.3E1,1.03E2,2.8E1,2E0,5.9E2,1.38E2,3E0,9.9E1,5.3E1,7.6E1,1E0,2E0,1.5E1,6.3E1,6.1E1,6E0,4.4E1,1.1E1,4.63E2,2.3E1,4E0,8E0,2E0,1E0,2.9E1,1E0,3.1E1,5E1,1.3E1,3.9E1,4.2E1,1.21E2,1.71E2,2.47E2,2.756E3,6.95E2,8E0,3E1,4E1,6.8E1,5.82E2,8E0,3.83E2,5.464E3,7.17E2,4.51E2,8.23E2,2.2E1,6.1E1,5.3E1,1E0,1E0,5E0,1.2E1,6.1E1,6E0,6E0,8.1E1,3.79E2,3.9E1,3.4E1,4.4E1,3.9E1,9E0,3.3E1,1.4E1,5.9E1,6E1,4.3E1,4E0,1.15E2,4E0,8.1E1,1.7E1,1.6E1,5.2E1,1.23E2,4E1,2.84E2,2.9E1,4.5E1,1.04E2,2.3E2,6.7E1,1.32E2,3.3E1,9.41E2,1.08E2,1.824E3,1.93E2,2E1,3.02E2,2.26E2,1.1E2],"tree_param":{"num_deleted":"0","num_feature":"8","num_nodes":"245","size_leaf_vector":"1"}},{"base_weights":[-7.45563E-1,-3.5503022E3,1.7748912E3,-3.8569734E3,-1.4010818E3,2.4956228E3,-2.9238953E1,-1.9391101E3,-4.176431E3,-4.9876367E2,-3.6513147E3,2.6729587E3,-1.6443356E2,-1.7869211E3,2.2218886E2,-2.1429226E3,-7.8164716E2,-4.0145835E3,-5.143976E3,9.959629E2,-8.6722345E2,-3.09235E3,-4.188415E3,3.8267024E3,2.3889258E3,9.3653894E2,-3.604139E2,-9.7820966E2,-2.5902666E3,1.1901523E3,-1.8237564E1,-1.4831581E3,-2.461662E3,-2.107097E2,-1.4800044E3,-4.2052715E3,-3.0573113E3,-3.9601465E3,-5.3756914E3,1.1577507E3,-4.4128003E3,7.527269E2,-1.01958E3,-2.1792808E3,-3.4318083E3,-8.291536E2,-4.2241084E3,3.9560435E3,-1.3269803E3,2.0823308E3,3.6045283E3,1.5309496E3,6.31812E2,-6.0681604E2,8.8731335E2,-1.8145255E3,-1.3603621E2,-3.276717E3,-1.8883054E3,1.9190685E3,4.5866577E2,-1.8573267E2,1.4609823E3,-7.806219E2,-1.7874521E3,-2.5981587E3,-1.8897885E3,-1.0174751E3,2.5364369E2,-2.3987612E3,-1.2626924E3,-3.2126604E3,-4.4526816E3,-2.8232258E3,-4.2052256E3,-4.169913E3,-2.9053657E3,-5.5096226E3,-4.353125E3,1.6457771E3,6.43052E2,3.5359375E0,-5.5336804E2,1.4232935E3,-1.6569197E1,-9.5312506E2,-3.155951E3,8.9882324E1,-2.3325557E3,-3.6106506E3,-1.5213395E3,1.1012696E0,-1.2547432E2,-4.2921987E3,-2.0740413E3,4.2267837E3,2.8013496E3,-5.0727527E2,-5.4567487E2,1.7579315E3,3.0759202E3,4.3036577E3,2.6342131E3,2.06516E3,4.3169363E2,-2.2226555E3,8.3799945E2,-9.412663E1,-9.402309E2,1.4670883E3,8.107324E1,-1.0355895E3,-2.3390918E3,8.2128107E2,-6.946932E2,-3.3310151E3,8.0191605E1,-1.9542303E3,1.286693E2,2.4028105E3,4.170612E2,-1.4946169E2,1.5476014E3,-7.32765E1,-1.4880039E3,2.3532046E3,6.247505E2,-6.697665E1,-2.752922E2,-2.816905E2,-1.5968364E2,-2.1177551E2,-2.8544553E2,-2.1110692E2,-1.3471642E2,-6.8564804E1,-2.2942378E2,-1.5687657E2,4.7299847E1,-2.578081E2,-8.818952E1,-1.7278564E2,-1.0522588E2,-3.4123212E2,-2.0131961E2,-4.59212E2,-3.325549E2,-1.9398282E2,-3.00997E2,-4.3304132E2,-2.7531177E2,-3.0606857E2,-4.3015485E2,-3.0494104E2,-1.5464516E2,-5.6205444E2,-5.0425143E2,-1.8632149E2,-4.4103345E2,1.2875676E2,2.8478796E2,3.331679E2,3.8003254E1,-1.4953711E2,1.7894138E2,-2.0710667E2,6.378877E1,2.0519209E1,-1.0507305E2,-5.9276526E2,-1.6339386E2,-1.019836E2,1.7095186E2,-2.4229073E2,8.21459E1,-3.9126715E2,-3.0143073E2,2.1109094E2,-2.4588805E2,-4.3099323E2,-7.4516014E1,-7.1708206E1,-2.9124902E2,4.3238745E2,3.0365238E1,2.59103E2,4.3307657E2,-3.986569E2,1.0109943E2,4.894352E1,1.8796182E2,3.8266196E2,2.573697E2,3.850594E2,5.91248E2,2.7329156E2,-1.0164419E2,-1.1247395E0,2.2253162E2,-2.3779991E2,8.0224304E1,-2.562522E2,-2.6166212E1,1.5499527E2,4.2483334E1,3.909321E1,-3.1648823E1,-1.2096868E2,-2.0272926E1,1.1833408E2,2.4770181E2,1.4799251E1,-1.5989854E2,-4.0274647E1,-2.3692656E2,-3.4351266E2,-1.6296013E2,1.628206E2,-8.316775E1,-1.6351947E2,-1.45071745E1,7.961614E1,-3.38654E2,-1.3725511E2,-2.2680069E2,2.6168912E2,1.1543857E1,1.6929478E2,-1.2364504E1,3.3700363E1,-1.2774816E2,2.0038298E2,-2.8257399E1,-3.6970074E1,8.187898E1,-1.7778624E2,-2.3119177E1,3.3320862E2,1.7725357E2,1.4787602E2,1.5283318E1],"categories":[],"categories_nodes":[],"categories_segments":[],"categories_sizes":[],"default_left":[0,0,0,0,0,0,0,0,0,0,0,0,0,0,0,0,0,0,0,0,0,0,0,0,0,0,0,0,0,0,0,0,0,0,0,0,0,0,0,0,0,0,0,0,0,0,0,0,0,0,0,0,0,0,0,0,0,0,0,0,0,0,0,0,0,0,0,0,0,0,0,0,0,0,0,0,0,0,0,0,0,0,0,0,0,0,0,0,0,0,0,0,0,0,0,0,0,0,0,0,0,0,0,0,0,0,0,0,0,0,0,0,0,0,0,0,0,0,0,0,0,0,0,0,0,0,0,0,0,0,0,0,0,0,0,0,0,0,0,0,0,0,0,0,0,0,0,0,0,0,0,0,0,0,0,0,0,0,0,0,0,0,0,0,0,0,0,0,0,0,0,0,0,0,0,0,0,0,0,0,0,0,0,0,0,0,0,0,0,0,0,0,0,0,0,0,0,0,0,0,0,0,0,0,0,0,0,0,0,0,0,0,0,0,0,0,0,0,0,0,0,0,0,0,0,0,0,0,0,0,0,0,0,0,0,0,0,0,0,0,0],"id":2,"left_children":[1,3,5,7,9,11,13,15,17,19,21,23,25,27,29,31,33,35,37,39,41,43,45,47,49,51,53,55,57,59,61,63,65,67,69,71,73,75,77,79,81,83,85,87,89,91,93,95,97,99,101,103,105,107,109,111,113,115,117,119,121,123,125,127,129,131,133,135,137,139,141,143,145,147,149,151,153,155,157,159,161,-1,-1,163,165,167,169,171,173,175,177,-1,-1,179,181,183,185,187,-1,189,191,193,195,197,199,201,203,205,207,209,211,213,215,217,219,221,-1,223,-1,225,227,229,231,233,235,237,239,-1,-1,-1,-1,-1,-1,-1,-1,-1,-1,-1,-1,-1,-1,-1,-1,-1,-1,-1,-1,-1,-1,-1,-1,-1,-1,-1,-1,-1,-1,-1,-1,-1,-1,-1,-1,-1,-1,-1,-1,-1,-1,-1,-1,-1,-1,-1,-1,-1,-1,-1,-1,-1,-1,-1,-1,-1,-1,-1,-1,-1,-1,-1,-1,-1,-1,-1,-1,-1,-1,-1,-1,-1,-1,-1,-1,-1,-1,-1,-1,-1,-1,-1,-1,-1,-1,-1,-1,-1,-1,-1,-1,-1,-1,-1,-1,-1,-1,-1,-1,-1,-1,-1,-1,-1,-1,-1,-1,-1,-1,-1,-1,-1,-1],"loss_changes":[1.7595943E11,6.1301965E9,2.419723E10,4.9827594E9,2.3615944E9,6.2729503E9,2.3483722E9,2.7315456E8,1.07269325E9,4.590848E8,8.702157E7,4.075987E9,1.7985733E8,4.294999E8,1.0819556E9,2.045394E8,6.986257E7,1.0798285E9,2.5219891E8,1.494959E8,1.656367E8,4.4282624E7,1.6521216E7,1.6457114E9,3.7217034E9,2.185548E7,2.1790042E8,2.3429274E8,1.5427251E8,4.923227E8,9.23185E8,6.808237E7,4.7077376E7,3.6971252E7,1.2744016E7,1.2109087E9,2.5630106E8,2.4835072E7,8.982733E7,3.9382704E7,2.5124928E7,2.9943712E7,8.373709E7,1.690432E7,3.550771E7,1.0865159E6,1.5253504E7,7.3876685E8,2.037286E8,2.5708954E9,1.3549138E9,2.3772312E7,5.1889784E7,1.00936E8,5.457128E7,6.5814464E7,8.9884136E7,3.9655424E7,3.746957E7,3.3540634E8,3.068353E8,4.9005386E8,2.8130342E8,2.00202E7,3.9849856E7,5.98272E7,1.3005568E7,1.367888E7,2.5926536E7,1.534456E6,4.642328E6,2.3237632E8,6.119752E8,1.3141504E8,1.8436352E7,6.83776E6,1.35232E6,9.531392E6,6.169856E6,3.1642752E7,5.5306756E7,0E0,0E0,3.580188E7,3.8969348E7,6.73721E7,6.6248736E7,8.932789E6,1.4814016E7,7.837824E6,4.605505E7,0E0,0E0,6.789632E6,5.875692E6,7.3877504E8,1.3642368E8,2.787207E8,0E0,9.295565E8,7.313715E8,8.293151E8,3.0761523E8,9.336416E6,1.7524682E7,3.32834E6,2.2873928E7,2.5362598E7,7.089802E7,1.6555248E7,5.8580525E6,5.7282304E7,7.138714E7,8.405058E7,5.4556276E7,4.050765E7,0E0,2.681984E7,0E0,1.7108646E8,7.885563E7,1.639558E8,1.3917258E8,8.152763E8,9.649216E7,9.811213E7,7.9169304E7,0E0,0E0,0E0,0E0,0E0,0E0,0E0,0E0,0E0,0E0,0E0,0E0,0E0,0E0,0E0,0E0,0E0,0E0,0E0,0E0,0E0,0E0,0E0,0E0,0E0,0E0,0E0,0E0,0E0,0E0,0E0,0E0,0E0,0E0,0E0,0E0,0E0,0E0,0E0,0E0,0E0,0E0,0E0,0E0,0E0,0E0,0E0,0E0,0E0,0E0,0E0,0E0,0E0,0E0,0E0,0E0,0E0,0E0,0E0,0E0,0E0,0E0,0E0,0E0,0E0,0E0,0E0,0E0,0E0,0E0,0E0,0E0,0E0,0E0,0E0,0E0,0E0,0E0,0E0,0E0,0E0,0E0,0E0,0E0,0E0,0E0,0E0,0E0,0E0,0E0,0E0,0E0,0E0,0E0,0E0,0E0,0E0,0E0,0E0,0E0,0E0,0E0,0E0,0E0,0E0,0E0,0E0,0E0,0E0,0E0,0E0,0E0,0E0,0E0],"parents":[2147483647,0,0,1,1,2,2,3,3,4,4,5,5,6,6,7,7,8,8,9,9,10,10,11,11,12,12,13,13,14,14,15,15,16,16,17,17,18,18,19,19,20,20,21,21,22,22,23,23,24,24,25,25,26,26,27,27,28,28,29,29,30,30,31,31,32,32,33,33,34,34,35,35,36,36,37,37,38,38,39,39,40,40,41,41,42,42,43,43,44,44,45,45,46,46,47,47,48,48,49,49,50,50,51,51,52,52,53,53,54,54,55,55,56,56,57,57,58,58,59,59,60,60,61,61,62,62,63,63,64,64,65,65,66,66,67,67,68,68,69,69,70,70,71,71,72,72,73,73,74,74,75,75,76,76,77,77,78,78,79,79,80,80,83,83,84,84,85,85,86,86,87,87,88,88,89,89,90,90,93,93,94,94,95,95,96,96,97,97,99,99,100,100,101,101,102,102,103,103,104,104,105,105,106,106,107,107,108,108,109,109,110,110,111,111,112,112,113,113,114,114,115,115,117,117,119,119,120,120,121,121,122,122,123,123,124,124,125,125,126,126],"right_children":[2,4,6,8,10,12,14,16,18,20,22,24,26,28,30,32,34,36,38,40,42,44,46,48,50,52,54,56,58,60,62,64,66,68,70,72,74,76,78,80,82,84,86,88,90,92,94,96,98,100,102,104,106,108,110,112,114,116,118,120,122,124,126,128,130,132,134,136,138,140,142,144,146,148,150,152,154,156,158,160,162,-1,-1,164,166,168,170,172,174,176,178,-1,-1,180,182,184,186,188,-1,190,192,194,196,198,200,202,204,206,208,210,212,214,216,218,220,222,-1,224,-1,226,228,230,232,234,236,238,240,-1,-1,-1,-1,-1,-1,-1,-1,-1,-1,-1,-1,-1,-1,-1,-1,-1,-1,-1,-1,-1,-1,-1,-1,-1,-1,-1,-1,-1,-1,-1,-1,-1,-1,-1,-1,-1,-1,-1,-1,-1,-1,-1,-1,-1,-1,-1,-1,-1,-1,-1,-1,-1,-1,-1,-1,-1,-1,-1,-1,-1,-1,-1,-1,-1,-1,-1,-1,-1,-1,-1,-1,-1,-1,-1,-1,-1,-1,-1,-1,-1,-1,-1,-1,-1,-1,-1,-1,-1,-1,-1,-1,-1,-1,-1,-1,-1,-1,-1,-1,-1,-1,-1,-1,-1,-1,-1,-1,-1,-1,-1,-1,-1,-1],"split_conditions":[-5.053733E-1,-6.498248E-1,1.0004122E0,-1.5165339E0,1.0004122E0,1.6613994E0,-2.1647029E-1,9.86795E-1,1.5006542E0,-1.2288924E0,1.5006542E0,-9.2331785E-1,-1.0851059E0,1.5006542E0,-9.2331785E-1,-8.3913904E-1,4.95451E-1,-7.942763E-1,-1.3720824E0,6.747345E0,-1.4388433E0,-6.395641E-1,-2.216426E0,6.747345E0,1.3553602E0,-1.2070717E0,1.1021589E0,-3.609218E-1,-3.609218E-1,1.5006542E0,1.7164341E0,-1.2070717E0,5.898445E-1,1.2295086E0,-1.0005556E0,-1.3720824E0,1.0004122E0,7.2280645E-1,8.489576E-1,-1.6002902E0,-2.014507E0,-7.167817E-5,6.747345E0,-2.2557123E0,6.06069E-1,-1.2070717E0,7.580733E-1,-3.576452E-1,-1.2326545E-1,1.3467124E0,4.95451E-1,-1.0594362E0,-1.5726404E0,-3.9078015E-1,4.95451E-1,-7.721298E-1,-7.6482296E-1,1.322399E0,1.4542435E0,-3.9078015E-1,1.0835932E0,1.6613994E0,1.5006542E0,6.747345E0,-1.0005556E0,-5.1143736E-1,9.095505E-1,1.0004122E0,-1.0005556E0,1.4957244E0,8.04311E-1,9.3885154E-1,9.2656606E-1,-1.3555471E0,8.57947E-1,-1.2070717E0,1.470916E0,-7.942763E-1,2.565812E-1,-1.1467448E0,-1.7580116E0,3.5359375E0,-5.5336804E2,-1.1854506E0,-1.8418677E0,-9.2331785E-1,-1.0777692E0,-2.014507E0,-4.2809302E-1,-2.1722768E-1,7.027426E-1,1.1012696E0,-1.2547432E2,1.0392643E0,8.070513E-1,5.6392696E-2,1.0835932E0,-1.0005556E0,-5.4567487E2,-3.609218E-1,-7.0945215E-1,1.9786248E0,6.747345E0,-1.9089916E0,-1.0413357E0,5.001703E-1,-1.464213E0,-9.2331785E-1,7.027426E-1,1.5058671E0,1.8334597E0,-3.558103E-1,-3.1305417E-1,-3.558103E-1,-3.2050735E-1,-2.141514E0,8.0191605E1,-7.721298E-1,1.286693E2,1.6613994E0,5.0578725E-1,-4.6211764E-1,1.6613994E0,1.2280447E0,1.0184612E0,5.0578725E-1,1.838473E0,-6.697665E1,-2.752922E2,-2.816905E2,-1.5968364E2,-2.1177551E2,-2.8544553E2,-2.1110692E2,-1.3471642E2,-6.8564804E1,-2.2942378E2,-1.5687657E2,4.7299847E1,-2.578081E2,-8.818952E1,-1.7278564E2,-1.0522588E2,-3.4123212E2,-2.0131961E2,-4.59212E2,-3.325549E2,-1.9398282E2,-3.00997E2,-4.3304132E2,-2.7531177E2,-3.0606857E2,-4.3015485E2,-3.0494104E2,-1.5464516E2,-5.6205444E2,-5.0425143E2,-1.8632149E2,-4.4103345E2,1.2875676E2,2.8478796E2,3.331679E2,3.8003254E1,-1.4953711E2,1.7894138E2,-2.0710667E2,6.378877E1,2.0519209E1,-1.0507305E2,-5.9276526E2,-1.6339386E2,-1.019836E2,1.7095186E2,-2.4229073E2,8.21459E1,-3.9126715E2,-3.0143073E2,2.1109094E2,-2.4588805E2,-4.3099323E2,-7.4516014E1,-7.1708206E1,-2.9124902E2,4.3238745E2,3.0365238E1,2.59103E2,4.3307657E2,-3.986569E2,1.0109943E2,4.894352E1,1.8796182E2,3.8266196E2,2.573697E2,3.850594E2,5.91248E2,2.7329156E2,-1.0164419E2,-1.1247395E0,2.2253162E2,-2.3779991E2,8.0224304E1,-2.562522E2,-2.6166212E1,1.5499527E2,4.2483334E1,3.909321E1,-3.1648823E1,-1.2096868E2,-2.0272926E1,1.1833408E2,2.4770181E2,1.4799251E1,-1.5989854E2,-4.0274647E1,-2.3692656E2,-3.4351266E2,-1.6296013E2,1.628206E2,-8.316775E1,-1.6351947E2,-1.45071745E1,7.961614E1,-3.38654E2,-1.3725511E2,-2.2680069E2,2.6168912E2,1.1543857E1,1.6929478E2,-1.2364504E1,3.3700363E1,-1.2774816E2,2.0038298E2,-2.8257399E1,-3.6970074E1,8.187898E1,-1.7778624E2,-2.3119177E1,3.3320862E2,1.7725357E2,1.4787602E2,1.5283318E1],"split_indices":[0,0,2,0,2,0,0,4,2,5,2,1,5,2,1,5,1,0,0,6,4,1,4,6,4,1,4,0,0,2,4,1,3,4,2,0,2,4,4,5,3,2,6,5,5,1,3,5,5,1,1,3,3,3,1,4,3,4,4,3,0,0,2,6,2,4,5,2,2,3,5,4,4,5,4,1,3,0,3,3,3,0,0,5,4,1,4,3,5,3,5,0,0,5,3,4,0,2,0,0,4,4,6,3,3,2,5,1,5,5,3,1,3,1,3,4,0,4,0,0,0,3,0,0,5,0,5,0,0,0,0,0,0,0,0,0,0,0,0,0,0,0,0,0,0,0,0,0,0,0,0,0,0,0,0,0,0,0,0,0,0,0,0,0,0,0,0,0,0,0,0,0,0,0,0,0,0,0,0,0,0,0,0,0,0,0,0,0,0,0,0,0,0,0,0,0,0,0,0,0,0,0,0,0,0,0,0,0,0,0,0,0,0,0,0,0,0,0,0,0,0,0,0,0,0,0,0,0,0,0,0,0,0,0,0,0,0,0,0,0,0],"split_type":[0,0,0,0,0,0,0,0,0,0,0,0,0,0,0,0,0,0,0,0,0,0,0,0,0,0,0,0,0,0,0,0,0,0,0,0,0,0,0,0,0,0,0,0,0,0,0,0,0,0,0,0,0,0,0,0,0,0,0,0,0,0,0,0,0,0,0,0,0,0,0,0,0,0,0,0,0,0,0,0,0,0,0,0,0,0,0,0,0,0,0,0,0,0,0,0,0,0,0,0,0,0,0,0,0,0,0,0,0,0,0,0,0,0,0,0,0,0,0,0,0,0,0,0,0,0,0,0,0,0,0,0,0,0,0,0,0,0,0,0,0,0,0,0,0,0,0,0,0,0,0,0,0,0,0,0,0,0,0,0,0,0,0,0,0,0,0,0,0,0,0,0,0,0,0,0,0,0,0,0,0,0,0,0,0,0,0,0,0,0,0,0,0,0,0,0,0,0,0,0,0,0,0,0,0,0,0,0,0,0,0,0,0,0,0,0,0,0,0,0,0,0,0,0,0,0,0,0,0,0,0,0,0,0,0,0,0,0,0,0,0],"sum_hessian":[2.7916E4,9.308E3,1.8608E4,8.145E3,1.163E3,1.3296E4,5.312E3,1.164E3,6.981E3,8.31E2,3.32E2,1.2465E4,8.31E2,6.64E2,4.648E3,9.89E2,1.75E2,5.985E3,9.96E2,1.64E2,6.67E2,1.66E2,1.66E2,2.46E3,1.0005E4,1.25E2,7.06E2,3.32E2,3.32E2,9.24E2,3.724E3,3.24E2,6.65E2,9.7E1,7.8E1,4.988E3,9.97E2,1.66E2,8.3E2,1.6E2,4E0,5.7E1,6.1E2,4.7E1,1.19E2,2E0,1.64E2,2.4E3,6E1,7.992E3,2.013E3,4.1E1,8.4E1,5.9E2,1.16E2,1.66E2,1.66E2,1.66E2,1.66E2,4.62E2,4.62E2,3.346E3,3.78E2,9.9E1,2.25E2,5.34E2,1.31E2,3.5E1,6.2E1,1.3E1,6.5E1,9.98E2,3.99E3,8.31E2,1.66E2,1.36E2,3E1,7.3E2,1E2,8.1E1,7.9E1,1E0,3E0,3E1,2.7E1,5.93E2,1.7E1,3E0,4.4E1,1.08E2,1.1E1,1E0,1E0,1.58E2,6E0,1.942E3,4.58E2,5.1E1,9E0,6.027E3,1.965E3,1.168E3,8.45E2,2.7E1,1.4E1,5E0,7.9E1,2.33E2,3.57E2,6.7E1,4.9E1,6.8E1,9.8E1,6.1E1,1.05E2,1.64E2,2E0,1.63E2,3E0,3.49E2,1.13E2,2.97E2,1.65E2,3.081E3,2.65E2,1.82E2,1.96E2,9.5E1,4E0,3.3E1,1.92E2,1.89E2,3.45E2,9.1E1,4E1,2.9E1,6E0,6E0,5.6E1,1.1E1,2E0,1.8E1,4.7E1,8.54E2,1.44E2,3.548E3,4.42E2,1.47E2,6.84E2,1.51E2,1.5E1,1.7E1,1.19E2,2.6E1,4E0,5.81E2,1.49E2,3E0,9.7E1,6.4E1,1.7E1,6E0,7.3E1,3E0,2.7E1,6E0,2.1E1,4.6E1,5.47E2,5E0,1.2E1,2E0,1E0,4.3E1,1E0,6.8E1,4E1,2E0,9E0,1.57E2,1E0,3E0,3E0,1.895E3,4.7E1,4.05E2,5.3E1,1.5E1,3.6E1,5.28E2,5.499E3,7.85E2,1.18E3,9.14E2,2.54E2,8.23E2,2.2E1,2E0,2.5E1,1E0,1.3E1,4E0,1E0,2.8E1,5.1E1,7.3E1,1.6E2,2.61E2,9.6E1,5.4E1,1.3E1,4.8E1,1E0,4.7E1,2.1E1,3.7E1,6.1E1,4.1E1,2E1,3.8E1,6.7E1,2E0,1.62E2,5.9E1,1.04E2,3.19E2,3E1,3.3E1,8E1,2.08E2,8.9E1,1.32E2,3.3E1,2.313E3,7.68E2,2.15E2,5E1,6.6E1,1.16E2,6.9E1,1.27E2],"tree_param":{"num_deleted":"0","num_feature":"8","num_nodes":"241","size_leaf_vector":"1"}},{"base_weights":[-9.744922E-1,-3.196412E3,1.5975171E3,-3.4722683E3,-1.2631483E3,2.2462417E3,-2.6365652E1,-1.747481E3,-3.7595647E3,-4.4975287E2,-3.2916226E3,2.405851E3,-1.479108E2,-1.6101781E3,2.0019095E2,-1.9302736E3,-7.093439E2,-3.9186472E3,-2.9331191E3,8.977903E2,-7.819308E2,-2.7880168E3,-3.7755178E3,3.1675234E3,2.0436119E3,6.0278345E2,-3.8642606E2,-8.830372E2,-2.3324836E3,6.610818E2,-2.6078598E2,-1.1661218E3,-2.1599956E3,-1.9379817E2,-1.3399025E3,-3.2283716E3,-4.1309355E3,-2.4282424E3,-3.5453096E3,1.0468499E3,-4.081487E3,6.754901E2,-9.189987E2,-1.5555482E3,-2.9940461E3,-7.87696E2,-3.80696E3,3.318239E3,-8.21842E2,1.667575E3,3.244646E3,1.2764075E3,3.5292886E2,-6.742383E2,7.633331E2,-1.6377655E3,-1.23021286E2,-2.950116E3,-1.7008842E3,1.378247E3,2.6200128E2,-6.014384E2,3.523743E2,-8.7844305E2,-1.6236174E3,-2.8803372E3,-2.0388387E3,-9.240053E2,2.2653922E2,-2.1835989E3,-1.140635E3,-3.042148E3,-4.319197E3,-4.298284E3,-3.3357756E3,-2.1895813E3,-3.7155835E3,-2.751142E3,-3.7498489E3,1.4862434E3,5.833858E2,3.3591797E0,-5.1186548E2,2.1839182E2,1.6791313E3,-8.579556E2,-2.882364E3,-1.7828035E3,7.8100977E2,-3.1197656E3,-1.372105E3,1.0461915E0,-1.19200584E2,-4.4853174E3,-3.5388596E3,2.1960374E3,3.6182932E3,-2.7951885E3,-1.082424E2,3.6597754E2,1.7512178E3,3.8741277E3,2.370995E3,-4.1240704E2,1.4197609E3,7.805538E2,-1.09293976E2,-1.095349E2,-8.753E2,1.9448944E2,1.375615E3,-9.3604767E2,-2.1102983E3,1.49985E3,-3.926455E2,-3.3767954E3,-2.2951685E3,-2.0118862E3,-1.0309908E3,2.221072E3,1.0421984E3,1.2238104E3,-1.3130112E2,-1.5567267E2,-1.1575736E3,7.1353973E2,-1.0879094E3,-6.8489494E1,-1.9206236E2,-1.4521713E2,-2.4261063E2,-2.9515753E2,-3.0806349E1,-1.8754846E2,-2.8126108E2,-1.3453966E2,-7.497506E0,-1.4342998E2,4.2652752E1,-2.278805E2,-4.7296093E1,-9.69056E1,-1.7087103E2,-3.249744E2,-1.9929973E2,-3.4713654E2,-4.7138248E2,-3.4455862E2,-4.4984537E2,-2.8982736E2,-4.3992844E2,-2.4671635E2,-1.2252421E2,-3.895859E2,-1.9683784E2,-3.847269E2,-2.5186931E2,-3.9202194E2,-2.823112E2,1.1607925E2,2.5789142E2,3.0461063E2,3.425422E1,4.5697395E1,-4.6624463E2,2.0716772E2,2.4417618E1,1.8510914E1,-9.4585E1,-5.433681E2,-1.4831128E2,-2.955293E1,-2.3778264E2,-5.405547E1,1.7120694E2,-2.2858817E2,-3.355411E2,1.9701817E2,-2.2375806E2,-4.5726523E2,-4.086328E1,-2.8648206E2,-4.0775778E2,3.235544E2,1.5194966E2,3.8361057E2,1.8638365E2,-4.601967E2,-1.4742033E2,2.6271915E2,-1.7320764E2,4.1571403E0,9.580701E1,2.1994786E2,1.4289708E2,3.2521762E2,4.8535236E2,3.1026572E2,1.8852625E2,1.287627E2,-1.1593223E2,8.942649E0,1.7501088E2,-6.280576E0,1.05790955E2,-3.368895E0,-1.8369798E2,-1.3979805E2,5.6460434E-1,-9.8103676E1,2.9484131E0,-1.5487839E1,7.513725E1,1.8763763E2,2.5523535E1,-3.6331017E1,-2.1431091E2,-3.100655E2,-1.4692686E2,1.9636032E2,3.268933E1,-4.8196968E1,2.1869595E2,-2.961478E2,-5.0811978E2,1.18362785E2,-2.64527E2,-1.4301086E2,-3.9035995E2,1.11954956E2,-2.197097E2,3.655414E2,1.9360164E2,8.1327644E1,3.2351367E2,1.5832547E2,-6.3621113E1,-5.7576313E1,1.2996117E2,-2.804125E1,1.6443877E2,-1.505909E2,2.3400839E1,1.5010274E2,2.594663E1,-7.411087E1,-1.819875E2],"categories":[],"categories_nodes":[],"categories_segments":[],"categories_sizes":[],"default_left":[0,0,0,0,0,0,0,0,0,0,0,0,0,0,0,0,0,0,0,0,0,0,0,0,0,0,0,0,0,0,0,0,0,0,0,0,0,0,0,0,0,0,0,0,0,0,0,0,0,0,0,0,0,0,0,0,0,0,0,0,0,0,0,0,0,0,0,0,0,0,0,0,0,0,0,0,0,0,0,0,0,0,0,0,0,0,0,0,0,0,0,0,0,0,0,0,0,0,0,0,0,0,0,0,0,0,0,0,0,0,0,0,0,0,0,0,0,0,0,0,0,0,0,0,0,0,0,0,0,0,0,0,0,0,0,0,0,0,0,0,0,0,0,0,0,0,0,0,0,0,0,0,0,0,0,0,0,0,0,0,0,0,0,0,0,0,0,0,0,0,0,0,0,0,0,0,0,0,0,0,0,0,0,0,0,0,0,0,0,0,0,0,0,0,0,0,0,0,0,0,0,0,0,0,0,0,0,0,0,0,0,0,0,0,0,0,0,0,0,0,0,0,0,0,0,0,0,0,0,0,0,0,0,0,0,0,0,0,0,0,0,0,0,0,0,0,0],"id":3,"left_children":[1,3,5,7,9,11,13,15,17,19,21,23,25,27,29,31,33,35,37,39,41,43,45,47,49,51,53,55,57,59,61,63,65,67,69,71,73,75,77,79,81,83,85,87,89,91,93,95,97,99,101,103,105,107,109,111,113,115,117,119,121,123,125,127,129,131,133,135,137,139,141,143,145,147,149,151,153,155,157,159,161,-1,-1,163,165,167,169,171,173,175,177,-1,-1,179,181,183,185,187,189,191,193,195,197,199,201,203,205,207,209,211,213,215,217,219,221,223,225,227,229,231,233,235,237,239,241,243,245,-1,-1,-1,-1,-1,-1,-1,-1,-1,-1,-1,-1,-1,-1,-1,-1,-1,-1,-1,-1,-1,-1,-1,-1,-1,-1,-1,-1,-1,-1,-1,-1,-1,-1,-1,-1,-1,-1,-1,-1,-1,-1,-1,-1,-1,-1,-1,-1,-1,-1,-1,-1,-1,-1,-1,-1,-1,-1,-1,-1,-1,-1,-1,-1,-1,-1,-1,-1,-1,-1,-1,-1,-1,-1,-1,-1,-1,-1,-1,-1,-1,-1,-1,-1,-1,-1,-1,-1,-1,-1,-1,-1,-1,-1,-1,-1,-1,-1,-1,-1,-1,-1,-1,-1,-1,-1,-1,-1,-1,-1,-1,-1,-1,-1,-1,-1,-1,-1,-1,-1],"loss_changes":[1.426018E11,4.960133E9,1.960376E10,4.0299725E9,1.919063E9,5.0815263E9,1.9067497E9,2.197056E8,9.06453E8,3.7312528E8,7.062374E7,3.4329887E9,1.4920422E8,3.4721E8,9.8789914E8,1.712681E8,5.695471E7,8.44202E8,3.409623E8,1.2673722E8,1.3406422E8,3.774797E7,1.2689664E7,2.4173814E9,3.8113444E9,3.3379432E7,2.096528E8,1.9080915E8,1.2488448E8,6.650692E8,4.8584522E8,2.8976064E7,6.045619E7,3.028879E7,1.0790896E7,2.6739405E8,5.8074726E8,1.8327398E8,7.236506E7,3.1919488E7,2.1512072E7,2.6241526E7,7.07553E7,1.519826E7,2.467456E7,9.805801E5,1.4135296E7,1.2951634E9,2.066998E8,7.002583E8,1.0984059E9,1.3658768E7,2.9338692E7,5.735547E7,4.3965624E7,5.339933E7,7.366234E7,3.8918144E7,3.2718272E7,2.3304947E8,5.65692E8,3.7043936E8,4.330464E8,2.7731112E7,8.58424E6,1.8697856E7,7.738982E7,1.2778988E7,2.1537114E7,1.202292E6,4.777176E6,2.5118106E8,5.021747E7,6.144942E8,3.5110502E8,1.3831373E8,2.2569344E7,1.7827584E7,5.240371E7,2.6166496E7,4.6407024E7,0E0,0E0,4.9874324E7,9.633296E6,5.463267E7,5.620003E7,2.0536376E7,4.616833E6,1.8071424E7,3.912045E7,0E0,0E0,1.3441024E7,3.298176E7,5.710605E8,1.1591516E9,8.629811E7,4.8871654E8,7.487077E7,8.706396E8,6.962975E8,2.9481267E8,7.841681E6,2.1817152E7,1.8077564E7,9.342879E6,1.9894076E7,3.571344E7,1.3151692E7,3.374469E7,4.6923124E7,5.829421E7,1.2413208E7,3.4234668E7,5.503117E7,8.716838E7,1.1878032E8,1.4038646E8,8.941568E7,2.9656794E8,2.9116845E8,6.7616576E8,1.8705317E8,3.227026E8,2.373994E8,4.10436E7,0E0,0E0,0E0,0E0,0E0,0E0,0E0,0E0,0E0,0E0,0E0,0E0,0E0,0E0,0E0,0E0,0E0,0E0,0E0,0E0,0E0,0E0,0E0,0E0,0E0,0E0,0E0,0E0,0E0,0E0,0E0,0E0,0E0,0E0,0E0,0E0,0E0,0E0,0E0,0E0,0E0,0E0,0E0,0E0,0E0,0E0,0E0,0E0,0E0,0E0,0E0,0E0,0E0,0E0,0E0,0E0,0E0,0E0,0E0,0E0,0E0,0E0,0E0,0E0,0E0,0E0,0E0,0E0,0E0,0E0,0E0,0E0,0E0,0E0,0E0,0E0,0E0,0E0,0E0,0E0,0E0,0E0,0E0,0E0,0E0,0E0,0E0,0E0,0E0,0E0,0E0,0E0,0E0,0E0,0E0,0E0,0E0,0E0,0E0,0E0,0E0,0E0,0E0,0E0,0E0,0E0,0E0,0E0,0E0,0E0,0E0,0E0,0E0,0E0,0E0,0E0,0E0,0E0,0E0,0E0],"parents":[2147483647,0,0,1,1,2,2,3,3,4,4,5,5,6,6,7,7,8,8,9,9,10,10,11,11,12,12,13,13,14,14,15,15,16,16,17,17,18,18,19,19,20,20,21,21,22,22,23,23,24,24,25,25,26,26,27,27,28,28,29,29,30,30,31,31,32,32,33,33,34,34,35,35,36,36,37,37,38,38,39,39,40,40,41,41,42,42,43,43,44,44,45,45,46,46,47,47,48,48,49,49,50,50,51,51,52,52,53,53,54,54,55,55,56,56,57,57,58,58,59,59,60,60,61,61,62,62,63,63,64,64,65,65,66,66,67,67,68,68,69,69,70,70,71,71,72,72,73,73,74,74,75,75,76,76,77,77,78,78,79,79,80,80,83,83,84,84,85,85,86,86,87,87,88,88,89,89,90,90,93,93,94,94,95,95,96,96,97,97,98,98,99,99,100,100,101,101,102,102,103,103,104,104,105,105,106,106,107,107,108,108,109,109,110,110,111,111,112,112,113,113,114,114,115,115,116,116,117,117,118,118,119,119,120,120,121,121,122,122,123,123,124,124,125,125,126,126],"right_children":[2,4,6,8,10,12,14,16,18,20,22,24,26,28,30,32,34,36,38,40,42,44,46,48,50,52,54,56,58,60,62,64,66,68,70,72,74,76,78,80,82,84,86,88,90,92,94,96,98,100,102,104,106,108,110,112,114,116,118,120,122,124,126,128,130,132,134,136,138,140,142,144,146,148,150,152,154,156,158,160,162,-1,-1,164,166,168,170,172,174,176,178,-1,-1,180,182,184,186,188,190,192,194,196,198,200,202,204,206,208,210,212,214,216,218,220,222,224,226,228,230,232,234,236,238,240,242,244,246,-1,-1,-1,-1,-1,-1,-1,-1,-1,-1,-1,-1,-1,-1,-1,-1,-1,-1,-1,-1,-1,-1,-1,-1,-1,-1,-1,-1,-1,-1,-1,-1,-1,-1,-1,-1,-1,-1,-1,-1,-1,-1,-1,-1,-1,-1,-1,-1,-1,-1,-1,-1,-1,-1,-1,-1,-1,-1,-1,-1,-1,-1,-1,-1,-1,-1,-1,-1,-1,-1,-1,-1,-1,-1,-1,-1,-1,-1,-1,-1,-1,-1,-1,-1,-1,-1,-1,-1,-1,-1,-1,-1,-1,-1,-1,-1,-1,-1,-1,-1,-1,-1,-1,-1,-1,-1,-1,-1,-1,-1,-1,-1,-1,-1,-1,-1,-1,-1,-1,-1],"split_conditions":[-5.053733E-1,-6.498248E-1,1.0004122E0,-1.5165339E0,1.0004122E0,1.6613994E0,-2.1647029E-1,9.86795E-1,7.2280645E-1,-1.2288924E0,1.5006542E0,-4.0955755E-1,-8.6728454E-1,1.5006542E0,1.5006542E0,-9.2331785E-1,4.95451E-1,-9.2331785E-1,4.95451E-1,6.747345E0,-1.4388433E0,-1.4917465E0,-2.216426E0,6.747345E0,1.3553602E0,-1.464213E0,1.342615E0,-3.609218E-1,-3.609218E-1,5.0578725E-1,1.0835932E0,-1.0581841E0,-1.0005556E0,1.2295086E0,-1.0005556E0,1.5006542E0,-7.942763E-1,1.5006542E0,-1.3720824E0,-1.6002902E0,-2.014507E0,-1.076472E0,6.747345E0,-1.5625997E0,6.06069E-1,-1.2070717E0,-1.1201264E0,-2.1647029E-1,-5.0031364E-1,-3.609218E-1,4.95451E-1,-1.9089916E0,-9.2331785E-1,-5.593808E-1,1.3044202E0,-7.721298E-1,-1.2820438E0,-4.1633388E-1,-8.6264774E-2,-6.395641E-1,-3.300734E-1,5.0578725E-1,1.6613994E0,1.5006542E0,-5.601319E-1,1.342615E0,1.5006542E0,1.1954105E0,-1.0005556E0,1.6269003E0,1.3793318E0,-7.942763E-1,-1.2276309E0,-1.3720824E0,1.0004122E0,1.179168E0,1.342615E0,-1.0005556E0,-7.942763E-1,-1.1467448E0,-1.7580116E0,3.3591797E0,-5.1186548E2,-1.1020259E0,-7.0665497E-1,-9.2331785E-1,-1.0777692E0,-1.6920445E0,-1.2070717E0,-6.395641E-1,7.027426E-1,1.0461915E0,-1.19200584E2,-3.9248288E-1,-3.7290344E-1,-1.0851059E0,1.5169479E0,-8.9962935E-1,5.001703E-1,6.50292E-1,5.0578725E-1,1.8288016E0,5.0578725E-1,-1.0005556E0,-1.0005556E0,-1.2820438E0,6.747345E0,-8.4525764E-1,9.2986214E-1,1.2827837E0,4.95451E-1,-3.558103E-1,-3.1305417E-1,-3.558103E-1,1.4797134E0,-4.0955755E-1,-3.1305417E-1,-2.582361E-1,3.2046553E-1,-1.2288924E0,1.7628794E0,1.6613994E0,1.2774521E0,1.6087998E0,1.5513039E0,-3.8368964E-1,7.792048E-1,-6.8489494E1,-1.9206236E2,-1.4521713E2,-2.4261063E2,-2.9515753E2,-3.0806349E1,-1.8754846E2,-2.8126108E2,-1.3453966E2,-7.497506E0,-1.4342998E2,4.2652752E1,-2.278805E2,-4.7296093E1,-9.69056E1,-1.7087103E2,-3.249744E2,-1.9929973E2,-3.4713654E2,-4.7138248E2,-3.4455862E2,-4.4984537E2,-2.8982736E2,-4.3992844E2,-2.4671635E2,-1.2252421E2,-3.895859E2,-1.9683784E2,-3.847269E2,-2.5186931E2,-3.9202194E2,-2.823112E2,1.1607925E2,2.5789142E2,3.0461063E2,3.425422E1,4.5697395E1,-4.6624463E2,2.0716772E2,2.4417618E1,1.8510914E1,-9.4585E1,-5.433681E2,-1.4831128E2,-2.955293E1,-2.3778264E2,-5.405547E1,1.7120694E2,-2.2858817E2,-3.355411E2,1.9701817E2,-2.2375806E2,-4.5726523E2,-4.086328E1,-2.8648206E2,-4.0775778E2,3.235544E2,1.5194966E2,3.8361057E2,1.8638365E2,-4.601967E2,-1.4742033E2,2.6271915E2,-1.7320764E2,4.1571403E0,9.580701E1,2.1994786E2,1.4289708E2,3.2521762E2,4.8535236E2,3.1026572E2,1.8852625E2,1.287627E2,-1.1593223E2,8.942649E0,1.7501088E2,-6.280576E0,1.05790955E2,-3.368895E0,-1.8369798E2,-1.3979805E2,5.6460434E-1,-9.8103676E1,2.9484131E0,-1.5487839E1,7.513725E1,1.8763763E2,2.5523535E1,-3.6331017E1,-2.1431091E2,-3.100655E2,-1.4692686E2,1.9636032E2,3.268933E1,-4.8196968E1,2.1869595E2,-2.961478E2,-5.0811978E2,1.18362785E2,-2.64527E2,-1.4301086E2,-3.9035995E2,1.11954956E2,-2.197097E2,3.655414E2,1.9360164E2,8.1327644E1,3.2351367E2,1.5832547E2,-6.3621113E1,-5.7576313E1,1.2996117E2,-2.804125E1,1.6443877E2,-1.505909E2,2.3400839E1,1.5010274E2,2.594663E1,-7.411087E1,-1.819875E2],"split_indices":[0,0,2,0,2,0,0,4,4,5,2,4,5,2,2,1,1,1,1,6,4,5,4,6,4,5,3,0,0,0,0,5,2,4,2,2,0,2,0,5,3,3,6,5,5,1,3,0,2,0,1,3,1,4,4,4,5,3,3,1,5,0,0,2,5,3,2,5,2,3,4,0,0,0,2,4,3,2,0,3,3,0,0,3,3,1,4,4,1,1,5,0,0,5,5,5,0,4,2,4,0,4,0,2,2,5,6,5,4,5,1,1,3,1,4,4,3,4,3,5,4,0,4,3,3,4,1,0,0,0,0,0,0,0,0,0,0,0,0,0,0,0,0,0,0,0,0,0,0,0,0,0,0,0,0,0,0,0,0,0,0,0,0,0,0,0,0,0,0,0,0,0,0,0,0,0,0,0,0,0,0,0,0,0,0,0,0,0,0,0,0,0,0,0,0,0,0,0,0,0,0,0,0,0,0,0,0,0,0,0,0,0,0,0,0,0,0,0,0,0,0,0,0,0,0,0,0,0,0,0,0,0,0,0,0,0,0,0,0,0,0,0,0,0,0,0,0],"split_type":[0,0,0,0,0,0,0,0,0,0,0,0,0,0,0,0,0,0,0,0,0,0,0,0,0,0,0,0,0,0,0,0,0,0,0,0,0,0,0,0,0,0,0,0,0,0,0,0,0,0,0,0,0,0,0,0,0,0,0,0,0,0,0,0,0,0,0,0,0,0,0,0,0,0,0,0,0,0,0,0,0,0,0,0,0,0,0,0,0,0,0,0,0,0,0,0,0,0,0,0,0,0,0,0,0,0,0,0,0,0,0,0,0,0,0,0,0,0,0,0,0,0,0,0,0,0,0,0,0,0,0,0,0,0,0,0,0,0,0,0,0,0,0,0,0,0,0,0,0,0,0,0,0,0,0,0,0,0,0,0,0,0,0,0,0,0,0,0,0,0,0,0,0,0,0,0,0,0,0,0,0,0,0,0,0,0,0,0,0,0,0,0,0,0,0,0,0,0,0,0,0,0,0,0,0,0,0,0,0,0,0,0,0,0,0,0,0,0,0,0,0,0,0,0,0,0,0,0,0,0,0,0,0,0,0,0,0,0,0,0,0,0,0,0,0,0,0],"sum_hessian":[2.7916E4,9.308E3,1.8608E4,8.145E3,1.163E3,1.3296E4,5.312E3,1.164E3,6.981E3,8.31E2,3.32E2,1.2465E4,8.31E2,6.64E2,4.648E3,9.89E2,1.75E2,5.851E3,1.13E3,1.64E2,6.67E2,1.66E2,1.66E2,4.015E3,8.45E3,2E2,6.31E2,3.32E2,3.32E2,2.324E3,2.324E3,2.3E2,7.59E2,9.7E1,7.8E1,1.38E3,4.471E3,6.22E2,5.08E2,1.6E2,4E0,5.7E1,6.1E2,2.5E1,1.41E2,2E0,1.64E2,3.869E3,1.46E2,6.437E3,2.013E3,5.3E1,1.47E2,5.05E2,1.26E2,1.66E2,1.66E2,1.66E2,1.66E2,8.3E2,1.494E3,1.494E3,8.3E2,1.43E2,8.7E1,1.06E2,6.53E2,3.5E1,6.2E1,1.3E1,6.5E1,1.182E3,1.98E2,3.69E3,7.81E2,5.27E2,9.5E1,1.07E2,4.01E2,8.1E1,7.9E1,1E0,3E0,4E1,1.7E1,5.93E2,1.7E1,2.3E1,2E0,1.3E2,1.1E1,1E0,1E0,4.2E1,1.22E2,8.18E2,3.051E3,3.8E1,1.08E2,3.89E2,6.048E3,1.168E3,8.45E2,4E0,4.9E1,7.6E1,7.1E1,1.33E2,3.72E2,6.6E1,6E1,6.8E1,9.8E1,2.3E1,1.43E2,9.8E1,6.8E1,1.12E2,5.4E1,2.35E2,5.95E2,4.33E2,1.061E3,8.3E2,6.64E2,6.64E2,1.66E2,1.22E2,2.1E1,7.4E1,1.3E1,1.03E2,3E0,5.42E2,1.11E2,2.3E1,1.2E1,6E0,5.6E1,1.2E1,1E0,5.2E1,1.3E1,9.85E2,1.97E2,6.6E1,1.32E2,7.05E2,2.985E3,5.56E2,2.25E2,4.08E2,1.19E2,8.5E1,1E1,1.6E1,9.1E1,3.36E2,6.5E1,6.4E1,1.7E1,6E0,7.3E1,3.9E1,1E0,1.3E1,4E0,4.6E1,5.47E2,5E0,1.2E1,7E0,1.6E1,1E0,1E0,3.1E1,9.9E1,2E0,9E0,4.1E1,1E0,5.7E1,6.5E1,3.21E2,4.97E2,2.713E3,3.38E2,1.5E1,2.3E1,4E1,6.8E1,2.52E2,1.37E2,2.527E3,3.521E3,7.17E2,4.51E2,3.35E2,5.1E2,1E0,3E0,1E1,3.9E1,1.9E1,5.7E1,6.9E1,2E0,1E1,1.23E2,3.33E2,3.9E1,4.1E1,2.5E1,4.1E1,1.9E1,4.7E1,2.1E1,3.7E1,6.1E1,1.6E1,7E0,1.39E2,4E0,8.1E1,1.7E1,6E0,6.2E1,8.7E1,2.5E1,1.9E1,3.5E1,3.7E1,1.98E2,5.4E2,5.5E1,3.63E2,7E1,8.1E2,2.51E2,7.77E2,5.3E1,5.31E2,1.33E2,2.42E2,4.22E2,1.14E2,5.2E1],"tree_param":{"num_deleted":"0","num_feature":"8","num_nodes":"247","size_leaf_vector":"1"}},{"base_weights":[-1.1834282E0,-2.8778628E3,1.437852E3,-3.125945E3,-1.1392421E3,2.0218019E3,-2.3887156E1,-2.1240186E3,-3.5264883E3,-4.0568137E2,-2.968621E3,2.2343267E3,5.336796E2,-1.4520166E3,1.8039978E2,-1.5746456E3,-2.6715684E3,-3.7337285E3,-2.694676E3,4.6147067E2,-8.393076E2,-2.5136526E3,-3.4058132E3,2.9349382E3,1.8621123E3,1.19966E3,-1.3294226E2,-7.956584E2,-2.1040144E3,9.778586E2,-5.0528507E1,-1.7455758E3,-6.713557E2,-2.8337905E3,-1.6851519E3,-3.8814768E3,-3.004861E3,-2.273967E3,-3.737724E3,1.4299756E3,1.4105016E2,-7.721593E2,-3.3789575E3,-1.562565E3,-2.7362148E3,-3.4645215E3,-1.5689807E3,1.6395234E3,3.3606562E3,1.4990735E3,2.957539E3,2.4158672E3,8.9745374E2,7.7171277E2,-2.939799E2,-1.4782261E3,-1.083263E2,-2.6607952E3,-1.5346345E3,1.3336848E3,1.192996E2,-2.6091595E2,8.907048E2,-8.40159E2,-1.9135685E3,-2.0493086E2,-1.2286545E3,-1.963771E3,-3.0239001E3,-1.1287477E3,-2.4400442E3,-3.309239E3,-4.058996E3,-2.5676472E3,-3.537602E3,-2.207074E3,-4.434079E3,-3.9245786E3,-3.2282932E3,1.6411957E3,-2.4126504E3,9.8760535E2,-2.0415598E2,2.7572174E2,-8.9106934E2,-3.780208E3,9.1864845E1,-6.182099E2,-1.9302875E3,-3.1105046E3,-2.105498E3,-7.483112E2,-3.4939812E3,-3.5748193E2,-2.3882344E3,2.6192993E3,1.0843068E3,3.4687634E3,1.847758E2,1.1603806E3,1.8420149E3,3.5324421E3,2.1690996E3,3.068985E3,2.0521646E3,6.501603E2,2.4386587E3,1.289352E3,5.0685913E2,-5.0837457E2,6.891485E2,1.091957E3,-1.5807916E3,7.1955853E2,-5.915389E2,9.405169E2,-2.7101477E3,-1.5957552E3,1.3549722E2,1.5190245E3,-1.6755743E2,7.652781E2,-5.5313696E2,2.2738945E2,-5.31573E2,1.5858706E3,2.2177527E2,-1.8643025E2,-6.1929054E1,-1.5081456E2,-2.0985106E2,1.2487228E0,-1.4812828E2,-1.9848943E2,-1.0645434E2,-1.7593787E2,-3.0719724E2,-3.8222427E2,-2.885201E2,-1.3370747E2,6.404826E1,-2.5159044E2,9.279948E0,-3.1624582E2,-4.1551114E2,-3.9367352E2,-4.765494E2,-2.3734334E2,-3.623404E2,-4.4448325E2,-3.358889E2,-1.3900595E2,-2.3804117E2,-1.4443217E2,-4.6402246E2,-3.365415E2,-4.2701E2,-1.969735E2,-3.369655E2,1.7788487E2,-3.653129E2,-3.7134628E2,-7.412253E1,1.2360724E2,-2.8620685E2,-5.573254E1,5.1332935E1,4.2047348E1,-2.4217168E2,-1.504825E2,-7.3257866E1,-1.662196E2,-4.536858E2,6.0996174E1,-1.4071596E2,-2.0920113E2,8.946797E1,-2.3937808E2,-3.736104E2,-3.0527414E1,-2.682939E2,9.9384767E-1,-1.1324053E2,-3.340392E2,-4.4498795E2,-1.26492676E2,3.6664196E1,-3.041875E2,-2.1365625E1,2.7677167E2,-1.25702286E2,2.2125032E2,5.1634808E1,4.0350372E2,2.9653232E2,-3.1705612E2,1.27177124E2,1.23064476E2,-1.3758966E2,3.3863605E2,1.7095622E2,3.2193735E2,5.349257E2,2.2620427E2,-1.220521E2,3.914813E2,2.5782236E2,6.037461E1,2.3320303E2,1.5550081E2,5.5947163E1,2.8136496E2,1.6829579E2,1.7723607E2,3.0177902E1,-2.0661064E2,6.934959E1,-7.0866747E0,-8.011001E1,1.1070475E2,1.3286433E-1,-7.941445E1,2.0052266E2,-2.685349E1,-1.7137732E2,1.4289705E2,-7.3353E1,-1.4351773E2,-9.898837E0,1.5231377E2,-1.1236231E1,-3.6850214E2,-2.3791548E2,-1.6969162E2,-3.4433594E0,2.013778E2,9.852659E1,2.4720781E1,-1.1231105E2,1.283439E2,-7.3204155E1,-1.4745677E2,3.0531336E1,7.892415E1,-3.3170086E1,-1.0841091E2,-2.6402261E0,4.1279404E2,1.4044536E2,-4.603841E1,4.8755047E1],"categories":[],"categories_nodes":[],"categories_segments":[],"categories_sizes":[],"default_left":[0,0,0,0,0,0,0,0,0,0,0,0,0,0,0,0,0,0,0,0,0,0,0,0,0,0,0,0,0,0,0,0,0,0,0,0,0,0,0,0,0,0,0,0,0,0,0,0,0,0,0,0,0,0,0,0,0,0,0,0,0,0,0,0,0,0,0,0,0,0,0,0,0,0,0,0,0,0,0,0,0,0,0,0,0,0,0,0,0,0,0,0,0,0,0,0,0,0,0,0,0,0,0,0,0,0,0,0,0,0,0,0,0,0,0,0,0,0,0,0,0,0,0,0,0,0,0,0,0,0,0,0,0,0,0,0,0,0,0,0,0,0,0,0,0,0,0,0,0,0,0,0,0,0,0,0,0,0,0,0,0,0,0,0,0,0,0,0,0,0,0,0,0,0,0,0,0,0,0,0,0,0,0,0,0,0,0,0,0,0,0,0,0,0,0,0,0,0,0,0,0,0,0,0,0,0,0,0,0,0,0,0,0,0,0,0,0,0,0,0,0,0,0,0,0,0,0,0,0,0,0,0,0,0,0,0,0,0,0,0,0,0,0,0,0,0,0,0,0,0,0],"id":4,"left_children":[1,3,5,7,9,11,13,15,17,19,21,23,25,27,29,31,33,35,37,39,41,43,45,47,49,51,53,55,57,59,61,63,65,67,69,71,73,75,77,79,81,83,85,87,89,91,93,95,97,99,101,103,105,107,109,111,113,115,117,119,121,123,125,127,129,131,133,135,137,139,141,143,145,147,149,151,153,155,157,159,161,163,165,167,169,171,-1,173,175,177,179,181,183,185,187,189,191,193,195,197,199,201,203,205,207,209,211,213,215,217,219,221,223,225,227,229,231,233,-1,235,237,239,241,243,245,247,249,-1,-1,-1,-1,-1,-1,-1,-1,-1,-1,-1,-1,-1,-1,-1,-1,-1,-1,-1,-1,-1,-1,-1,-1,-1,-1,-1,-1,-1,-1,-1,-1,-1,-1,-1,-1,-1,-1,-1,-1,-1,-1,-1,-1,-1,-1,-1,-1,-1,-1,-1,-1,-1,-1,-1,-1,-1,-1,-1,-1,-1,-1,-1,-1,-1,-1,-1,-1,-1,-1,-1,-1,-1,-1,-1,-1,-1,-1,-1,-1,-1,-1,-1,-1,-1,-1,-1,-1,-1,-1,-1,-1,-1,-1,-1,-1,-1,-1,-1,-1,-1,-1,-1,-1,-1,-1,-1,-1,-1,-1,-1,-1,-1,-1,-1,-1,-1,-1,-1,-1,-1,-1,-1,-1],"loss_changes":[1.1557057E11,4.0115896E9,1.5884362E10,3.2616284E9,1.5608376E9,4.204159E9,1.55032E9,6.963763E8,9.928786E8,3.132359E8,5.767552E7,3.0286807E9,7.384603E8,2.829088E8,8.561897E8,1.7870362E8,1.8164685E8,4.8962355E8,5.0228736E8,8.606973E7,9.20369E7,3.1074368E7,1.2572928E7,2.2197207E9,3.0183485E9,3.036297E8,1.2143553E8,1.5606704E8,1.0148416E8,3.187806E8,7.143057E8,1.4730138E8,4.8356624E7,1.5929549E8,6.739005E7,3.79392E8,1.7469235E8,1.1043482E8,1.902848E7,5.9962784E7,6.1571196E7,6.77808E7,2.7614496E7,1.0613536E7,2.5084352E7,1.0268416E7,6.093924E6,5.411479E8,1.0417275E9,6.61206E8,8.494838E8,3.2896128E7,2.5300922E8,1.6620904E7,1.4937005E8,4.574941E7,6.723306E7,3.22304E7,3.1656864E7,2.0559552E8,1.3377782E8,3.8973824E8,3.0609443E8,3.390659E7,5.8693376E7,2.8601204E7,8.43612E6,3.581965E7,7.954893E7,3.697708E7,1.3683392E7,1.0120909E8,2.3579034E8,8.100378E7,4.2304E7,1.1126144E8,8.08976E6,3.1804928E7,1.0264256E7,5.459787E7,5.94433E6,6.1885276E7,3.8295172E7,2.2883968E7,4.6270304E7,1.3292576E7,0E0,1.1516935E7,1.2836424E7,2.7823936E7,5.427568E7,8.84972E5,8.47936E6,3.0921852E6,5.035654E6,2.1116723E8,4.089497E8,8.25045E8,3.7240307E8,5.142231E8,5.7432166E8,6.0389376E8,2.5479424E8,1.3567456E7,4.2776576E7,4.6478336E7,2.1335808E7,1.94994E7,4.2250664E7,7.43517E7,3.650331E7,1.3650073E7,2.7635232E7,6.496017E7,4.390459E7,2.0114312E6,4.447437E7,2.5844512E7,0E0,1.7151578E8,3.2776718E7,1.2274838E8,1.1989159E8,3.3072237E8,5.294717E8,1.4316186E8,6.1322908E7,0E0,0E0,0E0,0E0,0E0,0E0,0E0,0E0,0E0,0E0,0E0,0E0,0E0,0E0,0E0,0E0,0E0,0E0,0E0,0E0,0E0,0E0,0E0,0E0,0E0,0E0,0E0,0E0,0E0,0E0,0E0,0E0,0E0,0E0,0E0,0E0,0E0,0E0,0E0,0E0,0E0,0E0,0E0,0E0,0E0,0E0,0E0,0E0,0E0,0E0,0E0,0E0,0E0,0E0,0E0,0E0,0E0,0E0,0E0,0E0,0E0,0E0,0E0,0E0,0E0,0E0,0E0,0E0,0E0,0E0,0E0,0E0,0E0,0E0,0E0,0E0,0E0,0E0,0E0,0E0,0E0,0E0,0E0,0E0,0E0,0E0,0E0,0E0,0E0,0E0,0E0,0E0,0E0,0E0,0E0,0E0,0E0,0E0,0E0,0E0,0E0,0E0,0E0,0E0,0E0,0E0,0E0,0E0,0E0,0E0,0E0,0E0,0E0,0E0,0E0,0E0,0E0,0E0,0E0,0E0,0E0,0E0,0E0,0E0],"parents":[2147483647,0,0,1,1,2,2,3,3,4,4,5,5,6,6,7,7,8,8,9,9,10,10,11,11,12,12,13,13,14,14,15,15,16,16,17,17,18,18,19,19,20,20,21,21,22,22,23,23,24,24,25,25,26,26,27,27,28,28,29,29,30,30,31,31,32,32,33,33,34,34,35,35,36,36,37,37,38,38,39,39,40,40,41,41,42,42,43,43,44,44,45,45,46,46,47,47,48,48,49,49,50,50,51,51,52,52,53,53,54,54,55,55,56,56,57,57,58,58,59,59,60,60,61,61,62,62,63,63,64,64,65,65,66,66,67,67,68,68,69,69,70,70,71,71,72,72,73,73,74,74,75,75,76,76,77,77,78,78,79,79,80,80,81,81,82,82,83,83,84,84,85,85,87,87,88,88,89,89,90,90,91,91,92,92,93,93,94,94,95,95,96,96,97,97,98,98,99,99,100,100,101,101,102,102,103,103,104,104,105,105,106,106,107,107,108,108,109,109,110,110,111,111,112,112,113,113,114,114,115,115,116,116,117,117,119,119,120,120,121,121,122,122,123,123,124,124,125,125,126,126],"right_children":[2,4,6,8,10,12,14,16,18,20,22,24,26,28,30,32,34,36,38,40,42,44,46,48,50,52,54,56,58,60,62,64,66,68,70,72,74,76,78,80,82,84,86,88,90,92,94,96,98,100,102,104,106,108,110,112,114,116,118,120,122,124,126,128,130,132,134,136,138,140,142,144,146,148,150,152,154,156,158,160,162,164,166,168,170,172,-1,174,176,178,180,182,184,186,188,190,192,194,196,198,200,202,204,206,208,210,212,214,216,218,220,222,224,226,228,230,232,234,-1,236,238,240,242,244,246,248,250,-1,-1,-1,-1,-1,-1,-1,-1,-1,-1,-1,-1,-1,-1,-1,-1,-1,-1,-1,-1,-1,-1,-1,-1,-1,-1,-1,-1,-1,-1,-1,-1,-1,-1,-1,-1,-1,-1,-1,-1,-1,-1,-1,-1,-1,-1,-1,-1,-1,-1,-1,-1,-1,-1,-1,-1,-1,-1,-1,-1,-1,-1,-1,-1,-1,-1,-1,-1,-1,-1,-1,-1,-1,-1,-1,-1,-1,-1,-1,-1,-1,-1,-1,-1,-1,-1,-1,-1,-1,-1,-1,-1,-1,-1,-1,-1,-1,-1,-1,-1,-1,-1,-1,-1,-1,-1,-1,-1,-1,-1,-1,-1,-1,-1,-1,-1,-1,-1,-1,-1,-1,-1,-1,-1],"split_conditions":[-5.053733E-1,-6.498248E-1,1.0004122E0,-1.3720824E0,1.0004122E0,1.5169479E0,-2.1647029E-1,-1.5165339E0,-7.942763E-1,-9.1500944E-1,1.5006542E0,-2.6387036E-1,1.6613994E0,1.5006542E0,-5.593808E-1,9.3885154E-1,9.3885154E-1,6.976361E-1,1.0004122E0,-1.2070717E0,6.747345E0,-9.2331785E-1,7.580733E-1,-2.1647029E-1,1.3793318E0,-8.4525764E-1,-1.0851059E0,-3.609218E-1,-3.609218E-1,1.0629586E0,1.4542435E0,-1.2074775E0,4.95451E-1,-1.1854506E0,4.95451E-1,-9.2331785E-1,4.95451E-1,6.747345E0,1.7625129E-1,6.747345E0,-1.5625997E0,-1.2009239E0,1.9979545E-1,-1.8671442E0,-2.1722768E-1,-2.216426E0,8.070513E-1,-1.0851059E0,6.747345E0,2.1169724E-1,4.95451E-1,-1.2070717E0,1.2774521E0,-1.2070717E0,1.342615E0,-2.044499E0,-7.6482296E-1,-2.141514E0,1.4542435E0,1.6613994E0,1.5006542E0,5.0578725E-1,1.5006542E0,-1.0005556E0,-7.0945215E-1,1.5006542E0,-1.0005556E0,1.5006542E0,-1.0005556E0,1.6087998E0,1.4367272E0,1.5006542E0,1.5006542E0,1.5006542E0,-1.0005556E0,-1.3555471E0,-1.8408482E0,-6.395641E-1,2.7663285E-1,-6.889071E-1,-1.0005556E0,6.747345E0,-1.0581841E0,8.4766194E-2,-1.0005556E0,-1.0924431E0,9.1864845E1,-1.7669561E0,-4.2809302E-1,-7.0945215E-1,3.0509928E-1,-1.2070717E0,3.4908876E-1,8.57947E-1,9.518558E-1,6.747345E0,-1.0777692E0,-6.432818E-1,-1.0005556E0,6.747345E0,4.95451E-1,2.1146655E0,6.747345E0,-1.3306253E0,-1.2691898E0,-1.0777692E0,4.95451E-1,-1.0594362E0,-1.5726404E0,-3.9078015E-1,4.95451E-1,-1.2070717E0,-1.2070717E0,-3.558103E-1,-3.2050735E-1,-1.2070717E0,-1.1201264E0,8.070513E-1,1.3549722E2,1.5006542E0,-8.3805203E-1,1.5169479E0,1.0835932E0,1.5006542E0,1.0835932E0,9.8273325E-1,1.5513039E0,-1.8643025E2,-6.1929054E1,-1.5081456E2,-2.0985106E2,1.2487228E0,-1.4812828E2,-1.9848943E2,-1.0645434E2,-1.7593787E2,-3.0719724E2,-3.8222427E2,-2.885201E2,-1.3370747E2,6.404826E1,-2.5159044E2,9.279948E0,-3.1624582E2,-4.1551114E2,-3.9367352E2,-4.765494E2,-2.3734334E2,-3.623404E2,-4.4448325E2,-3.358889E2,-1.3900595E2,-2.3804117E2,-1.4443217E2,-4.6402246E2,-3.365415E2,-4.2701E2,-1.969735E2,-3.369655E2,1.7788487E2,-3.653129E2,-3.7134628E2,-7.412253E1,1.2360724E2,-2.8620685E2,-5.573254E1,5.1332935E1,4.2047348E1,-2.4217168E2,-1.504825E2,-7.3257866E1,-1.662196E2,-4.536858E2,6.0996174E1,-1.4071596E2,-2.0920113E2,8.946797E1,-2.3937808E2,-3.736104E2,-3.0527414E1,-2.682939E2,9.9384767E-1,-1.1324053E2,-3.340392E2,-4.4498795E2,-1.26492676E2,3.6664196E1,-3.041875E2,-2.1365625E1,2.7677167E2,-1.25702286E2,2.2125032E2,5.1634808E1,4.0350372E2,2.9653232E2,-3.1705612E2,1.27177124E2,1.23064476E2,-1.3758966E2,3.3863605E2,1.7095622E2,3.2193735E2,5.349257E2,2.2620427E2,-1.220521E2,3.914813E2,2.5782236E2,6.037461E1,2.3320303E2,1.5550081E2,5.5947163E1,2.8136496E2,1.6829579E2,1.7723607E2,3.0177902E1,-2.0661064E2,6.934959E1,-7.0866747E0,-8.011001E1,1.1070475E2,1.3286433E-1,-7.941445E1,2.0052266E2,-2.685349E1,-1.7137732E2,1.4289705E2,-7.3353E1,-1.4351773E2,-9.898837E0,1.5231377E2,-1.1236231E1,-3.6850214E2,-2.3791548E2,-1.6969162E2,-3.4433594E0,2.013778E2,9.852659E1,2.4720781E1,-1.1231105E2,1.283439E2,-7.3204155E1,-1.4745677E2,3.0531336E1,7.892415E1,-3.3170086E1,-1.0841091E2,-2.6402261E0,4.1279404E2,1.4044536E2,-4.603841E1,4.8755047E1],"split_indices":[0,0,2,0,2,0,0,0,0,5,2,5,0,2,4,4,4,4,2,1,6,1,3,0,4,5,5,0,0,1,4,5,1,5,1,1,1,6,4,6,5,4,5,5,3,4,3,5,6,1,1,1,4,1,3,5,3,4,4,0,2,0,2,2,4,2,2,2,2,3,5,2,2,2,2,5,3,1,4,3,2,6,5,5,2,3,0,4,5,4,4,1,5,4,3,6,4,4,2,6,1,5,6,3,3,4,1,3,3,3,1,1,1,1,3,1,3,3,0,2,4,0,0,2,0,3,3,0,0,0,0,0,0,0,0,0,0,0,0,0,0,0,0,0,0,0,0,0,0,0,0,0,0,0,0,0,0,0,0,0,0,0,0,0,0,0,0,0,0,0,0,0,0,0,0,0,0,0,0,0,0,0,0,0,0,0,0,0,0,0,0,0,0,0,0,0,0,0,0,0,0,0,0,0,0,0,0,0,0,0,0,0,0,0,0,0,0,0,0,0,0,0,0,0,0,0,0,0,0,0,0,0,0,0,0,0,0,0,0,0,0,0,0,0,0,0,0,0,0,0,0],"split_type":[0,0,0,0,0,0,0,0,0,0,0,0,0,0,0,0,0,0,0,0,0,0,0,0,0,0,0,0,0,0,0,0,0,0,0,0,0,0,0,0,0,0,0,0,0,0,0,0,0,0,0,0,0,0,0,0,0,0,0,0,0,0,0,0,0,0,0,0,0,0,0,0,0,0,0,0,0,0,0,0,0,0,0,0,0,0,0,0,0,0,0,0,0,0,0,0,0,0,0,0,0,0,0,0,0,0,0,0,0,0,0,0,0,0,0,0,0,0,0,0,0,0,0,0,0,0,0,0,0,0,0,0,0,0,0,0,0,0,0,0,0,0,0,0,0,0,0,0,0,0,0,0,0,0,0,0,0,0,0,0,0,0,0,0,0,0,0,0,0,0,0,0,0,0,0,0,0,0,0,0,0,0,0,0,0,0,0,0,0,0,0,0,0,0,0,0,0,0,0,0,0,0,0,0,0,0,0,0,0,0,0,0,0,0,0,0,0,0,0,0,0,0,0,0,0,0,0,0,0,0,0,0,0,0,0,0,0,0,0,0,0,0,0,0,0,0,0,0,0,0,0],"sum_hessian":[2.7916E4,9.308E3,1.8608E4,8.145E3,1.163E3,1.3296E4,5.312E3,2.328E3,5.817E3,8.31E2,3.32E2,1.1634E4,1.662E3,6.64E2,4.648E3,1.164E3,1.164E3,4.654E3,1.163E3,2.77E2,5.54E2,1.66E2,1.66E2,4.034E3,7.6E3,8.31E2,8.31E2,3.32E2,3.32E2,1.043E3,3.605E3,9.78E2,1.86E2,9.98E2,1.66E2,3.866E3,7.88E2,8.31E2,3.32E2,6.8E1,2.09E2,5.41E2,1.3E1,3.3E1,1.33E2,1.6E2,6E0,9.99E2,3.035E3,5.71E3,1.89E3,1.64E2,6.67E2,1.25E2,7.06E2,1.66E2,1.66E2,1.66E2,1.66E2,7.37E2,3.06E2,2.947E3,6.58E2,1.54E2,8.24E2,1.02E2,8.4E1,1.81E2,8.17E2,9.7E1,6.9E1,9.2E2,2.946E3,4.36E2,3.52E2,8.08E2,2.3E1,2.38E2,9.4E1,6.5E1,3E0,6E1,1.49E2,5.5E1,4.86E2,1.2E1,1E0,1E1,2.3E1,8.1E1,5.2E1,2E0,1.58E2,3E0,3E0,3.6E2,6.39E2,2.935E3,1E2,2.875E3,2.835E3,1.091E3,7.99E2,5.6E1,1.08E2,5.76E2,9.1E1,4.1E1,8.4E1,5.8E2,1.26E2,6E0,1.6E2,6.1E1,1.05E2,2E0,1.64E2,1.63E2,3E0,6.56E2,8.1E1,1.56E2,1.5E2,1.051E3,1.896E3,3.22E2,3.36E2,2.6E1,1.28E2,2.61E2,5.63E2,8.8E1,1.4E1,1.3E1,7.1E1,1.55E2,2.6E1,1.17E2,7E2,8.7E1,1E1,6.7E1,2E0,7.88E2,1.32E2,2.517E3,4.29E2,3.71E2,6.5E1,5.4E1,2.98E2,1.43E2,6.65E2,2E0,2.1E1,9.5E1,1.43E2,1.1E1,8.3E1,6.4E1,1E0,1E0,2E0,5.7E1,3E0,1E2,4.9E1,5.3E1,2E0,9.8E1,3.88E2,4E0,8E0,4E0,6E0,2.2E1,1E0,4E1,4.1E1,1.3E1,3.9E1,1E0,1E0,1.4E2,1.8E1,1E0,2E0,2E0,1E0,3.47E2,1.3E1,2.13E2,4.26E2,1.378E3,1.557E3,2.4E1,7.6E1,2.798E3,7.7E1,2.22E2,2.613E3,9.33E2,1.58E2,7.78E2,2.1E1,1.8E1,3.8E1,1.8E1,9E1,5.1E1,5.25E2,5.9E1,3.2E1,2.7E1,1.4E1,5E0,7.9E1,2.33E2,3.47E2,7.8E1,4.8E1,2E0,4E0,1.5E1,1.45E2,4.1E1,2E1,3.8E1,6.7E1,1E0,1E0,3.9E1,1.25E2,1.53E2,1E1,3.39E2,3.17E2,5.7E1,2.4E1,1.16E2,4E1,7.2E1,7.8E1,5.24E2,5.27E2,9.05E2,9.91E2,2E1,3.02E2,9.4E1,2.42E2],"tree_param":{"num_deleted":"0","num_feature":"8","num_nodes":"251","size_leaf_vector":"1"}},{"base_weights":[-1.3480924E0,-2.5913613E3,1.2942849E3,-2.814307E3,-1.0289E3,1.8199288E3,-2.1502777E1,-1.9127017E3,-3.1747441E3,-3.6721872E2,-2.6790198E3,2.0110991E3,4.813323E2,-1.3078134E3,1.6249767E2,-1.4180913E3,-2.4056702E3,-3.360996E3,-2.42717E3,4.1244638E2,-7.5709204E2,-2.2689414E3,-3.0730564E3,2.6897627E3,1.6988027E3,1.081622E3,-1.19535805E2,-7.165762E2,-1.8951233E3,7.0568756E2,-1.3156651E2,-1.5401177E3,-3.905109E2,-2.569602E3,-1.6018502E3,-3.4937432E3,-2.706124E3,-2.047755E3,-3.3678484E3,1.2778057E3,1.2615001E2,-6.957254E2,-3.0787795E3,-1.2463784E3,-2.4401929E3,-3.292983E3,-2.492568E3,2.8224187E3,-8.2688324E2,1.4694387E3,3.0162563E3,2.1799949E3,8.0869806E2,4.9875534E2,-3.1598672E2,-1.3308656E3,-9.7995895E1,-2.3975017E3,-1.3813967E3,1.0092212E3,-6.352098E1,-4.623166E2,6.594085E2,-7.57745E2,-1.6750981E3,-3.5925407E1,-9.5857666E2,-1.8431069E3,-2.7941277E3,-1.043284E3,-2.208231E3,-2.8823765E3,-3.63968E3,-2.3122546E3,-3.1860527E3,-1.9868326E3,-4.0160232E3,-3.0539229E3,-3.6616072E3,1.4742363E3,-2.2827524E3,8.8617914E2,-1.8376949E2,2.4457639E2,-8.024219E2,-3.4498726E3,8.727158E1,-1.4616791E3,8.9148566E2,-2.5524836E3,-1.01100146E3,-2.8803252E3,-4.227775E3,2.724209E2,-2.949018E3,1.263594E3,3.0312578E3,-2.7081719E3,-1.6016342E2,1.9268715E2,1.5486814E3,3.585151E3,2.2260972E3,2.7734783E3,1.8496412E3,4.7620883E2,1.7798945E3,1.1352372E3,3.0253986E2,-5.4109357E2,6.794928E2,-7.3073157E2,-1.7356978E3,6.342694E2,-5.4767847E2,-2.446261E3,1.08341736E2,-1.4372356E3,1.2533486E2,1.1462119E3,-3.0930438E2,5.4551154E2,-7.046104E2,-2.7762842E0,-7.139756E2,1.2857048E3,7.642033E1,-5.7379383E1,-1.9707256E2,-2.3311922E2,-1.5674188E2,-6.969016E1,3.694871E1,-6.158418E1,-1.5473378E2,-2.680548E2,-1.684967E2,-3.5013327E2,-2.6722122E2,-1.2186764E2,5.8225643E1,-3.1757126E2,-1.9871318E2,-2.6784918E2,-4.0319608E2,-4.2060788E2,-3.54282E2,-2.6970898E2,-1.8511983E2,-4.0084317E2,-3.0241235E2,-1.27848076E2,-2.1487674E2,-1.3480339E2,-4.1972934E2,-3.1522482E2,-1.8474129E2,-6.5041016E1,-3.6941647E2,1.6037007E2,-3.4704727E2,-3.5277902E2,-6.918099E1,1.1145962E2,-2.647413E2,-5.0214478E1,4.63024E1,9.0319115E1,-3.563295E1,-8.68804E1,5.144012E1,-1.529221E2,-4.1335822E2,-2.1417383E1,-1.9627592E2,-4.0892677E1,1.7461552E2,-1.8560413E2,-2.7498203E2,1.9384435E2,-1.7947348E2,-3.2298434E2,-1.5828983E2,-5.142328E2,-2.72652E2,-2.91887E2,1.8226628E2,-3.3206998E2,-1.1759206E2,1.8714822E2,4.0532986E1,3.4802805E2,2.4199654E2,-3.3934726E2,5.1781197E1,2.367062E2,-1.6819794E2,-2.9261838E2,2.4788973E1,1.9982626E2,1.2928629E2,3.064593E2,4.4509366E2,1.4799715E2,2.7804807E2,2.8366837E2,-3.8301075E1,5.4654873E1,2.1013896E2,1.0382995E2,2.6700764E1,1.2231815E2,2.2497534E2,-3.568504E1,1.282335E2,3.7213528E1,-1.8597496E2,-1.5913175E1,-7.2995255E1,1.1190914E2,6.804887E0,-2.3690649E1,-1.774953E2,-2.6356845E2,-1.156098E2,1.2393251E2,-6.636694E1,-1.3754202E2,-8.92355E0,8.934909E1,-2.492721E2,-1.2321874E2,-2.2138762E2,1.5382326E2,7.4455925E1,2.2291332E1,-8.752178E1,8.259596E1,-6.1175514E1,-1.4616179E2,2.5841577E0,4.893031E1,-5.0140934E1,-1.1732521E2,-2.7583588E1,1.0232598E2,2.4354837E2,-7.242162E1,5.9942055E1],"categories":[],"categories_nodes":[],"categories_segments":[],"categories_sizes":[],"default_left":[0,0,0,0,0,0,0,0,0,0,0,0,0,0,0,0,0,0,0,0,0,0,0,0,0,0,0,0,0,0,0,0,0,0,0,0,0,0,0,0,0,0,0,0,0,0,0,0,0,0,0,0,0,0,0,0,0,0,0,0,0,0,0,0,0,0,0,0,0,0,0,0,0,0,0,0,0,0,0,0,0,0,0,0,0,0,0,0,0,0,0,0,0,0,0,0,0,0,0,0,0,0,0,0,0,0,0,0,0,0,0,0,0,0,0,0,0,0,0,0,0,0,0,0,0,0,0,0,0,0,0,0,0,0,0,0,0,0,0,0,0,0,0,0,0,0,0,0,0,0,0,0,0,0,0,0,0,0,0,0,0,0,0,0,0,0,0,0,0,0,0,0,0,0,0,0,0,0,0,0,0,0,0,0,0,0,0,0,0,0,0,0,0,0,0,0,0,0,0,0,0,0,0,0,0,0,0,0,0,0,0,0,0,0,0,0,0,0,0,0,0,0,0,0,0,0,0,0,0,0,0,0,0,0,0,0,0,0,0,0,0,0,0,0,0,0,0,0,0],"id":5,"left_children":[1,3,5,7,9,11,13,15,17,19,21,23,25,27,29,31,33,35,37,39,41,43,45,47,49,51,53,55,57,59,61,63,65,67,69,71,73,75,77,79,81,83,85,87,89,91,93,95,97,99,101,103,105,107,109,111,113,115,117,119,121,123,125,127,129,131,133,135,137,139,141,143,145,147,149,151,153,155,157,159,161,163,165,167,169,171,-1,173,175,177,179,181,183,185,187,189,191,193,195,197,199,201,203,205,207,209,211,213,215,217,219,221,223,225,227,229,-1,231,-1,233,235,237,239,241,243,245,247,-1,-1,-1,-1,-1,-1,-1,-1,-1,-1,-1,-1,-1,-1,-1,-1,-1,-1,-1,-1,-1,-1,-1,-1,-1,-1,-1,-1,-1,-1,-1,-1,-1,-1,-1,-1,-1,-1,-1,-1,-1,-1,-1,-1,-1,-1,-1,-1,-1,-1,-1,-1,-1,-1,-1,-1,-1,-1,-1,-1,-1,-1,-1,-1,-1,-1,-1,-1,-1,-1,-1,-1,-1,-1,-1,-1,-1,-1,-1,-1,-1,-1,-1,-1,-1,-1,-1,-1,-1,-1,-1,-1,-1,-1,-1,-1,-1,-1,-1,-1,-1,-1,-1,-1,-1,-1,-1,-1,-1,-1,-1,-1,-1,-1,-1,-1,-1,-1,-1,-1,-1,-1],"loss_changes":[9.368463E10,3.2398336E9,1.2870691E10,2.6411581E9,1.2699336E9,3.401732E9,1.2577025E9,5.644621E8,8.019231E8,2.5321582E8,4.6835456E7,2.461401E9,5.999649E8,2.2955635E8,7.4269005E8,1.454802E8,1.4939853E8,3.9521485E8,4.0854374E8,6.871309E7,7.693117E7,2.6202944E7,1.3112064E7,1.7120707E9,2.4042148E9,2.4764762E8,1.01215544E8,1.2640538E8,8.26304E7,3.813381E8,7.895975E8,1.086656E8,2.5144048E7,1.5242086E8,6.5436896E7,3.3452032E8,1.4177792E8,9.178701E7,1.9526144E7,5.1624136E7,4.9627896E7,5.4573424E7,2.3539976E7,1.3270432E7,2.0208256E7,3.3341056E7,6.3907296E7,1.1459891E9,1.6764144E8,6.867681E8,5.2289843E8,2.721984E7,2.1485786E8,2.475896E7,1.4199206E8,3.930493E7,5.53383E7,3.0994752E7,2.6370592E7,2.1186726E8,1.811601E8,2.4609578E8,3.2486154E8,3.3454232E7,5.9010816E7,2.1159002E7,8.732952E6,2.6075392E7,5.410099E7,3.093096E7,1.4010848E7,1.649874E8,1.5616E8,7.254426E7,3.488589E7,9.005056E7,5.94896E6,1.3987712E7,1.3969408E7,4.7816384E7,5.482574E6,5.21859E7,3.1120964E7,2.2484704E7,4.301731E7,1.0750016E7,0E0,1.4582032E7,4.0483182E6,1.2900096E7,3.1217928E7,3.3432896E7,3.2660544E7,4.4898296E7,2.4433312E7,2.1784576E8,8.4632166E8,7.913406E7,3.8857856E8,6.924892E7,7.328E8,2.9508403E8,2.014638E8,1.24584E7,3.460915E7,5.84002E7,4.171616E7,1.0773288E7,2.401732E7,3.710648E7,3.1372264E7,3.5160224E7,4.859443E7,5.108331E7,3.9342384E7,2.7829504E7,0E0,2.3388896E7,0E0,1.6591565E8,3.3627092E7,7.7748936E7,1.2500618E8,1.8525208E8,2.7636384E8,1.2696032E8,1.938888E8,0E0,0E0,0E0,0E0,0E0,0E0,0E0,0E0,0E0,0E0,0E0,0E0,0E0,0E0,0E0,0E0,0E0,0E0,0E0,0E0,0E0,0E0,0E0,0E0,0E0,0E0,0E0,0E0,0E0,0E0,0E0,0E0,0E0,0E0,0E0,0E0,0E0,0E0,0E0,0E0,0E0,0E0,0E0,0E0,0E0,0E0,0E0,0E0,0E0,0E0,0E0,0E0,0E0,0E0,0E0,0E0,0E0,0E0,0E0,0E0,0E0,0E0,0E0,0E0,0E0,0E0,0E0,0E0,0E0,0E0,0E0,0E0,0E0,0E0,0E0,0E0,0E0,0E0,0E0,0E0,0E0,0E0,0E0,0E0,0E0,0E0,0E0,0E0,0E0,0E0,0E0,0E0,0E0,0E0,0E0,0E0,0E0,0E0,0E0,0E0,0E0,0E0,0E0,0E0,0E0,0E0,0E0,0E0,0E0,0E0,0E0,0E0,0E0,0E0,0E0,0E0,0E0,0E0,0E0,0E0,0E0,0E0],"parents":[2147483647,0,0,1,1,2,2,3,3,4,4,5,5,6,6,7,7,8,8,9,9,10,10,11,11,12,12,13,13,14,14,15,15,16,16,17,17,18,18,19,19,20,20,21,21,22,22,23,23,24,24,25,25,26,26,27,27,28,28,29,29,30,30,31,31,32,32,33,33,34,34,35,35,36,36,37,37,38,38,39,39,40,40,41,41,42,42,43,43,44,44,45,45,46,46,47,47,48,48,49,49,50,50,51,51,52,52,53,53,54,54,55,55,56,56,57,57,58,58,59,59,60,60,61,61,62,62,63,63,64,64,65,65,66,66,67,67,68,68,69,69,70,70,71,71,72,72,73,73,74,74,75,75,76,76,77,77,78,78,79,79,80,80,81,81,82,82,83,83,84,84,85,85,87,87,88,88,89,89,90,90,91,91,92,92,93,93,94,94,95,95,96,96,97,97,98,98,99,99,100,100,101,101,102,102,103,103,104,104,105,105,106,106,107,107,108,108,109,109,110,110,111,111,112,112,113,113,114,114,115,115,117,117,119,119,120,120,121,121,122,122,123,123,124,124,125,125,126,126],"right_children":[2,4,6,8,10,12,14,16,18,20,22,24,26,28,30,32,34,36,38,40,42,44,46,48,50,52,54,56,58,60,62,64,66,68,70,72,74,76,78,80,82,84,86,88,90,92,94,96,98,100,102,104,106,108,110,112,114,116,118,120,122,124,126,128,130,132,134,136,138,140,142,144,146,148,150,152,154,156,158,160,162,164,166,168,170,172,-1,174,176,178,180,182,184,186,188,190,192,194,196,198,200,202,204,206,208,210,212,214,216,218,220,222,224,226,228,230,-1,232,-1,234,236,238,240,242,244,246,248,-1,-1,-1,-1,-1,-1,-1,-1,-1,-1,-1,-1,-1,-1,-1,-1,-1,-1,-1,-1,-1,-1,-1,-1,-1,-1,-1,-1,-1,-1,-1,-1,-1,-1,-1,-1,-1,-1,-1,-1,-1,-1,-1,-1,-1,-1,-1,-1,-1,-1,-1,-1,-1,-1,-1,-1,-1,-1,-1,-1,-1,-1,-1,-1,-1,-1,-1,-1,-1,-1,-1,-1,-1,-1,-1,-1,-1,-1,-1,-1,-1,-1,-1,-1,-1,-1,-1,-1,-1,-1,-1,-1,-1,-1,-1,-1,-1,-1,-1,-1,-1,-1,-1,-1,-1,-1,-1,-1,-1,-1,-1,-1,-1,-1,-1,-1,-1,-1,-1,-1,-1,-1],"split_conditions":[-5.053733E-1,-6.498248E-1,1.0004122E0,-1.3720824E0,1.0004122E0,1.5169479E0,-2.1647029E-1,-1.5165339E0,-7.942763E-1,-9.1500944E-1,1.5006542E0,-4.0955755E-1,1.6613994E0,1.5006542E0,-2.904481E-1,1.154597E0,8.2648414E-1,6.976361E-1,1.0004122E0,-1.2070717E0,6.747345E0,-1.4917465E0,-1.1607747E-1,6.747345E0,1.663996E0,-8.4525764E-1,-8.6728454E-1,-3.609218E-1,-3.609218E-1,1.0629586E0,1.2295086E0,-1.2074775E0,4.95451E-1,-9.2331785E-1,4.95451E-1,-1.3322965E0,4.95451E-1,6.747345E0,1.5006542E0,6.747345E0,-1.5625997E0,-1.2009239E0,1.9979545E-1,-1.5625997E0,6.06069E-1,-4.0955755E-1,-3.7290344E-1,-3.609218E-1,-5.0031364E-1,-3.609218E-1,4.95451E-1,-1.2070717E0,9.043922E-1,-1.4917465E0,1.1021589E0,-7.721298E-1,-7.538561E-1,1.322399E0,1.4542435E0,1.6613994E0,1.5006542E0,5.0578725E-1,1.5006542E0,1.5006542E0,-1.0005556E0,1.4469595E0,1.3793318E0,-1.0005556E0,-1.0005556E0,1.6087998E0,-1.0005556E0,1.5006542E0,-1.0005556E0,1.0023245E0,-1.0005556E0,-1.3078221E0,-1.8408482E0,5.057244E-1,-2.141514E0,-6.889071E-1,-1.0005556E0,6.747345E0,-1.0581841E0,-7.167817E-5,8.070513E-1,-1.0924431E0,8.727158E1,-1.6920445E0,-1.2070717E0,-6.395641E-1,7.027426E-1,-7.229787E-1,8.096371E-2,-1.05416395E-1,7.792048E-1,-8.269019E-1,-5.3321016E-1,-3.8024572E-1,5.001703E-1,-9.2331785E-1,3.6133575E-1,1.9786248E0,-5.0031364E-1,6.747345E0,-1.2691898E0,-5.0873584E-1,1.6577778E0,-1.9089916E0,6.747345E0,-3.8368964E-1,4.95451E-1,-3.558103E-1,-3.1305417E-1,-3.558103E-1,-3.2050735E-1,-2.141514E0,1.08341736E2,3.2046553E-1,1.2533486E2,1.5006542E0,-8.3805203E-1,1.5169479E0,9.391418E-1,1.5006542E0,1.0835932E0,1.9786248E0,1.6087998E0,-5.7379383E1,-1.9707256E2,-2.3311922E2,-1.5674188E2,-6.969016E1,3.694871E1,-6.158418E1,-1.5473378E2,-2.680548E2,-1.684967E2,-3.5013327E2,-2.6722122E2,-1.2186764E2,5.8225643E1,-3.1757126E2,-1.9871318E2,-2.6784918E2,-4.0319608E2,-4.2060788E2,-3.54282E2,-2.6970898E2,-1.8511983E2,-4.0084317E2,-3.0241235E2,-1.27848076E2,-2.1487674E2,-1.3480339E2,-4.1972934E2,-3.1522482E2,-1.8474129E2,-6.5041016E1,-3.6941647E2,1.6037007E2,-3.4704727E2,-3.5277902E2,-6.918099E1,1.1145962E2,-2.647413E2,-5.0214478E1,4.63024E1,9.0319115E1,-3.563295E1,-8.68804E1,5.144012E1,-1.529221E2,-4.1335822E2,-2.1417383E1,-1.9627592E2,-4.0892677E1,1.7461552E2,-1.8560413E2,-2.7498203E2,1.9384435E2,-1.7947348E2,-3.2298434E2,-1.5828983E2,-5.142328E2,-2.72652E2,-2.91887E2,1.8226628E2,-3.3206998E2,-1.1759206E2,1.8714822E2,4.0532986E1,3.4802805E2,2.4199654E2,-3.3934726E2,5.1781197E1,2.367062E2,-1.6819794E2,-2.9261838E2,2.4788973E1,1.9982626E2,1.2928629E2,3.064593E2,4.4509366E2,1.4799715E2,2.7804807E2,2.8366837E2,-3.8301075E1,5.4654873E1,2.1013896E2,1.0382995E2,2.6700764E1,1.2231815E2,2.2497534E2,-3.568504E1,1.282335E2,3.7213528E1,-1.8597496E2,-1.5913175E1,-7.2995255E1,1.1190914E2,6.804887E0,-2.3690649E1,-1.774953E2,-2.6356845E2,-1.156098E2,1.2393251E2,-6.636694E1,-1.3754202E2,-8.92355E0,8.934909E1,-2.492721E2,-1.2321874E2,-2.2138762E2,1.5382326E2,7.4455925E1,2.2291332E1,-8.752178E1,8.259596E1,-6.1175514E1,-1.4616179E2,2.5841577E0,4.893031E1,-5.0140934E1,-1.1732521E2,-2.7583588E1,1.0232598E2,2.4354837E2,-7.242162E1,5.9942055E1],"split_indices":[0,0,2,0,2,0,0,0,0,5,2,4,0,2,4,4,4,4,2,1,6,5,3,6,4,5,5,0,0,1,4,5,1,1,1,5,1,6,2,6,5,4,5,5,5,4,5,0,2,0,1,1,4,5,4,4,3,4,4,0,2,0,2,2,2,3,4,2,2,3,2,2,2,3,2,5,3,5,4,3,2,6,5,2,3,3,0,4,1,1,5,3,4,4,1,5,5,5,2,1,0,4,2,6,3,5,3,3,6,4,1,1,3,1,3,4,0,3,0,2,4,0,0,2,0,4,3,0,0,0,0,0,0,0,0,0,0,0,0,0,0,0,0,0,0,0,0,0,0,0,0,0,0,0,0,0,0,0,0,0,0,0,0,0,0,0,0,0,0,0,0,0,0,0,0,0,0,0,0,0,0,0,0,0,0,0,0,0,0,0,0,0,0,0,0,0,0,0,0,0,0,0,0,0,0,0,0,0,0,0,0,0,0,0,0,0,0,0,0,0,0,0,0,0,0,0,0,0,0,0,0,0,0,0,0,0,0,0,0,0,0,0,0,0,0,0,0,0,0],"split_type":[0,0,0,0,0,0,0,0,0,0,0,0,0,0,0,0,0,0,0,0,0,0,0,0,0,0,0,0,0,0,0,0,0,0,0,0,0,0,0,0,0,0,0,0,0,0,0,0,0,0,0,0,0,0,0,0,0,0,0,0,0,0,0,0,0,0,0,0,0,0,0,0,0,0,0,0,0,0,0,0,0,0,0,0,0,0,0,0,0,0,0,0,0,0,0,0,0,0,0,0,0,0,0,0,0,0,0,0,0,0,0,0,0,0,0,0,0,0,0,0,0,0,0,0,0,0,0,0,0,0,0,0,0,0,0,0,0,0,0,0,0,0,0,0,0,0,0,0,0,0,0,0,0,0,0,0,0,0,0,0,0,0,0,0,0,0,0,0,0,0,0,0,0,0,0,0,0,0,0,0,0,0,0,0,0,0,0,0,0,0,0,0,0,0,0,0,0,0,0,0,0,0,0,0,0,0,0,0,0,0,0,0,0,0,0,0,0,0,0,0,0,0,0,0,0,0,0,0,0,0,0,0,0,0,0,0,0,0,0,0,0,0,0,0,0,0,0,0,0],"sum_hessian":[2.7916E4,9.308E3,1.8608E4,8.145E3,1.163E3,1.3296E4,5.312E3,2.328E3,5.817E3,8.31E2,3.32E2,1.1634E4,1.662E3,6.64E2,4.648E3,1.164E3,1.164E3,4.654E3,1.163E3,2.77E2,5.54E2,1.66E2,1.66E2,3.664E3,7.97E3,8.31E2,8.31E2,3.32E2,3.32E2,1.632E3,3.016E3,1.04E3,1.24E2,9.65E2,1.99E2,3.866E3,7.88E2,8.31E2,3.32E2,6.8E1,2.09E2,5.41E2,1.3E1,2.5E1,1.41E2,1.17E2,4.9E1,3.531E3,1.33E2,6.79E3,1.18E3,1.64E2,6.67E2,2E2,6.31E2,1.66E2,1.66E2,1.66E2,1.66E2,1.17E3,4.62E2,2.127E3,8.89E2,1.54E2,8.86E2,7.7E1,4.7E1,2.3E2,7.35E2,1.05E2,9.4E1,7.49E2,3.117E3,4.36E2,3.52E2,8.08E2,2.3E1,1.66E2,1.66E2,6.5E1,3E0,6E1,1.49E2,5.5E1,4.86E2,1.2E1,1E0,2.3E1,2E0,1.3E2,1.1E1,8.4E1,3.3E1,7E0,4.2E1,4.18E2,3.113E3,3.4E1,9.9E1,3.97E2,6.393E3,6.84E2,4.96E2,5.6E1,1.08E2,4.98E2,1.69E2,4.6E1,1.54E2,5.15E2,1.16E2,6.8E1,9.8E1,6.3E1,1.03E2,1.64E2,2E0,1.63E2,3E0,1.06E3,1.1E2,2.37E2,2.25E2,7.53E2,1.374E3,4.28E2,4.61E2,1.35E2,1.9E1,1.22E2,7.64E2,2.9E1,4.8E1,3.1E1,1.6E1,3.4E1,1.96E2,1.04E2,6.31E2,9.5E1,1E1,1.5E1,7.9E1,6.39E2,1.1E2,4.49E2,2.668E3,2.35E2,2.01E2,5.4E1,2.98E2,1.52E2,6.56E2,2E0,2.1E1,1.52E2,1.4E1,2E0,1.64E2,6.4E1,1E0,1E0,2E0,5.7E1,3E0,1E2,4.9E1,2.6E1,2.9E1,4.63E2,2.3E1,4E0,8E0,7E0,1.6E1,1E0,1E0,3.1E1,9.9E1,2E0,9E0,6.5E1,1.9E1,1.9E1,1.4E1,2E0,5E0,3.4E1,8E0,2.44E2,1.74E2,1.792E3,1.321E3,2.8E1,6E0,3.7E1,6.2E1,6E0,3.91E2,2.316E3,4.077E3,4.3E2,2.54E2,2.13E2,2.83E2,5.5E1,1E0,1.8E1,9E1,1.34E2,3.64E2,7.9E1,9E1,4E0,4.2E1,1.5E2,4E0,1.71E2,3.44E2,6.7E1,4.9E1,4.7E1,2.1E1,3.7E1,6.1E1,4.3E1,2E1,3.6E1,6.7E1,2E0,1.62E2,1.31E2,3.2E1,5.35E2,5.25E2,5.7E1,5.3E1,1.91E2,4.6E1,1.1E2,1.15E2,3.79E2,3.74E2,6.7E2,7.04E2,3.5E2,7.8E1,1.82E2,2.79E2],"tree_param":{"num_deleted":"0","num_feature":"8","num_nodes":"249","size_leaf_vector":"1"}},{"base_weights":[-1.5163741E0,-2.3333584E3,1.1649686E3,-2.5337312E3,-9.290881E2,1.6381464E3,-1.9486273E1,-1.277049E3,-2.7430554E3,-3.319695E2,-2.4181978E3,1.810147E3,4.3377762E2,-1.1784458E3,1.4629724E2,-1.4349927E3,-5.996798E2,-2.6203125E3,-3.4772537E3,6.830404E2,-5.821861E2,-2.045222E3,-2.7766934E3,2.3878315E3,1.4919291E3,9.7464716E2,-1.0761327E2,-6.46928E2,-1.7064247E3,6.351439E2,-1.183474E2,-1.0728523E3,-1.805729E3,-8.852382E2,-4.701145E0,-3.3477751E3,-2.4744407E3,-2.9384214E3,-3.7418462E3,8.024838E2,-3.2996453E3,5.3489E2,-6.872732E2,-1.2572924E3,-2.2298816E3,-2.974432E3,-2.2544968E3,1.2992216E3,2.745265E3,1.142442E3,2.3303704E3,1.9650876E3,7.2854333E2,5.2729395E2,-2.6427808E2,-1.2012542E3,-8.872807E1,-2.158061E3,-1.2445702E3,9.084383E2,-5.7432472E1,-4.161531E2,5.938424E2,-4.1908945E2,-1.2459683E3,-2.5313662E3,-1.6793545E3,-1.0848483E3,-2.230052E2,3.7021057E2,-1.0167277E3,-3.5311199E3,-2.415397E3,-2.6061223E3,-1.786623E3,-3.0891274E3,-2.2157786E3,-3.9180486E3,-3.3002288E3,6.203764E2,1.5172178E3,3.0738672E1,-4.27825E2,1.13419304E2,1.4651906E3,-6.2213947E2,-1.9729872E3,-1.3525283E3,9.427471E1,-2.5668962E3,-1.6663896E3,-2.5729807E3,-3.7837441E3,2.3147656E2,-2.6645732E3,2.2321528E3,8.596696E2,2.8312473E3,2.3364308E2,8.317928E2,1.472236E3,2.8499438E3,1.6587017E3,2.654469E3,1.7003511E3,4.3853082E2,1.6541902E3,6.0054486E2,-1.9368445E3,-5.0997992E2,4.2546793E2,1.02036884E3,-1.2903853E3,1.2342097E3,-3.0860153E2,-2.5266023E3,-1.5980083E3,-1.5250992E3,-6.4558203E2,1.0318058E3,-2.7896158E2,4.9105063E2,-6.347844E2,-3.2426315E2,-1.6522738E3,1.1579403E3,6.875177E1,-4.6144094E0,-1.1015409E2,-1.1314495E2,-1.9000168E2,-2.822797E2,-1.7053647E2,-1.5423497E2,-2.3352238E2,-6.798641E1,-1.2758811E2,-5.6332245E1,8.6053795E1,6.331548E1,-1.220863E2,6.7999444E0,-1.4864679E2,-2.9407886E2,-3.703894E2,-1.3642657E2,-2.7144568E2,-1.911987E2,-2.78033E2,-1.3085454E2,-2.3507845E2,-2.7488528E2,-3.4642984E2,-4.4226696E1,-2.2684016E2,-3.6707898E2,-4.3570142E2,-5.0705362E2,-3.207834E2,7.923994E1,-1.3126353E2,-6.36925E1,1.8476997E2,3.4617733E1,-4.5984512E2,1.794115E2,2.5116407E1,-8.244079E1,-1.1334845E1,7.391045E1,-2.314348E2,-5.0130047E1,-1.7553558E2,-1.9488779E2,-3.109083E2,-6.1458287E0,-2.1864558E2,-2.7364462E2,-4.6346354E0,-5.1073068E2,-2.5321109E2,-2.7242786E2,1.6707748E2,-2.9981174E2,-1.0713946E2,2.4097276E2,-2.6299924E2,2.2847859E2,5.350657E1,3.2991788E2,2.4245503E2,-2.655707E2,1.1336444E2,8.9577126E1,-1.38502E2,4.2024742E1,1.6445964E2,2.599839E2,4.5028058E2,1.7383018E2,-1.403795E2,1.6710108E1,2.832396E2,1.77112E2,-8.3011185E1,1.0360171E2,2.7920023E1,1.1344692E2,2.0933067E2,8.641619E1,1.1749812E1,-1.8149902E1,-2.3303062E2,-8.720902E0,-8.233887E1,1.1581605E1,9.039742E1,-7.254076E1,1.863761E2,-1.1059353E2,-2.1648425E2,2.4851392E2,9.371655E1,-3.8981377E1,2.027061E2,-2.1445543E2,-4.1266763E2,3.5280884E1,-2.1935912E2,-9.991405E1,-3.2466098E2,1.2914569E2,-1.703782E2,7.4757416E1,1.5228893E2,2.0100664E1,-7.893171E1,7.437941E1,-5.51881E1,-1.3167726E2,2.327987E0,-5.07153E1,3.5506756E1,-2.2213237E2,-7.148034E1,9.212251E1,2.1950179E2,-6.521901E1,5.3969326E1],"categories":[],"categories_nodes":[],"categories_segments":[],"categories_sizes":[],"default_left":[0,0,0,0,0,0,0,0,0,0,0,0,0,0,0,0,0,0,0,0,0,0,0,0,0,0,0,0,0,0,0,0,0,0,0,0,0,0,0,0,0,0,0,0,0,0,0,0,0,0,0,0,0,0,0,0,0,0,0,0,0,0,0,0,0,0,0,0,0,0,0,0,0,0,0,0,0,0,0,0,0,0,0,0,0,0,0,0,0,0,0,0,0,0,0,0,0,0,0,0,0,0,0,0,0,0,0,0,0,0,0,0,0,0,0,0,0,0,0,0,0,0,0,0,0,0,0,0,0,0,0,0,0,0,0,0,0,0,0,0,0,0,0,0,0,0,0,0,0,0,0,0,0,0,0,0,0,0,0,0,0,0,0,0,0,0,0,0,0,0,0,0,0,0,0,0,0,0,0,0,0,0,0,0,0,0,0,0,0,0,0,0,0,0,0,0,0,0,0,0,0,0,0,0,0,0,0,0,0,0,0,0,0,0,0,0,0,0,0,0,0,0,0,0,0,0,0,0,0,0,0,0,0,0,0,0,0,0,0,0,0,0,0,0,0,0,0,0,0],"id":6,"left_children":[1,3,5,7,9,11,13,15,17,19,21,23,25,27,29,31,33,35,37,39,41,43,45,47,49,51,53,55,57,59,61,63,65,67,69,71,73,75,77,79,81,83,85,87,89,91,93,95,97,99,101,103,105,107,109,111,113,115,117,119,121,123,125,127,129,131,133,135,137,139,141,143,145,147,149,151,153,155,157,159,161,-1,-1,163,165,167,169,171,-1,173,175,177,179,181,183,185,187,189,191,193,195,197,199,201,203,205,207,209,211,213,215,217,219,221,223,225,227,229,231,233,235,237,239,241,243,245,247,-1,-1,-1,-1,-1,-1,-1,-1,-1,-1,-1,-1,-1,-1,-1,-1,-1,-1,-1,-1,-1,-1,-1,-1,-1,-1,-1,-1,-1,-1,-1,-1,-1,-1,-1,-1,-1,-1,-1,-1,-1,-1,-1,-1,-1,-1,-1,-1,-1,-1,-1,-1,-1,-1,-1,-1,-1,-1,-1,-1,-1,-1,-1,-1,-1,-1,-1,-1,-1,-1,-1,-1,-1,-1,-1,-1,-1,-1,-1,-1,-1,-1,-1,-1,-1,-1,-1,-1,-1,-1,-1,-1,-1,-1,-1,-1,-1,-1,-1,-1,-1,-1,-1,-1,-1,-1,-1,-1,-1,-1,-1,-1,-1,-1,-1,-1,-1,-1,-1,-1,-1,-1],"loss_changes":[7.5938595E10,2.6169876E9,1.0429592E10,2.1393367E9,1.03419706E9,2.753712E9,1.0209931E9,1.2377843E8,6.2008934E8,2.1170261E8,3.884659E7,2.135298E9,4.8706762E8,1.8551514E8,6.0151936E8,1.2480282E8,3.7713896E7,6.2692966E8,1.3114778E8,8.1139336E7,7.878434E7,2.149472E7,1.0538368E7,1.6038277E9,2.196485E9,2.0136934E8,8.28964E7,1.0293187E8,6.6774656E7,3.0914182E8,6.401353E8,5.380275E7,3.83904E7,1.958632E7,2.807411E7,1.6190464E8,4.4730163E8,2.9421056E7,3.8815744E7,2.0014248E7,1.8964376E7,2.2575294E7,4.9939744E7,8.398868E6,2.1169856E7,2.8602624E7,5.1588736E7,4.175845E8,6.707446E8,5.416586E8,7.654738E8,2.559968E7,1.7859866E8,3.0945732E7,1.1342419E8,3.438528E7,4.895766E7,3.0431744E7,2.707704E7,1.7182374E8,1.469289E8,2.4117757E8,2.6354064E8,2.5909914E7,2.6237632E7,1.1314464E7,3.2251264E7,8.029584E6,1.3759704E7,2.3364628E7,1.0291876E7,7.386419E7,4.879341E7,5.0086912E8,2.1404288E8,2.532864E7,4.68976E6,3.501875E7,1.5793792E7,4.426803E7,2.3957816E7,0E0,0E0,4.6557636E7,6.737192E6,5.9904496E7,2.85588E7,1.0435676E7,0E0,2.1417408E7,4.410317E7,3.3740544E7,4.836253E7,3.858536E7,1.9637792E7,2.8866726E8,3.212085E8,5.6406016E8,2.7345418E8,3.8857357E8,4.6512333E8,5.021358E8,2.376832E8,1.8999744E7,2.331776E7,4.826164E7,3.391187E7,2.0400092E7,3.030358E6,6.5250744E7,2.5973296E7,1.1658604E7,2.357408E7,6.58896E6,2.810472E7,5.166931E7,8.094315E7,9.907131E7,1.1493795E8,1.4695731E8,2.7348596E7,6.314589E7,1.0145765E8,2.4642912E8,7.683194E7,1.0329402E8,1.5721085E8,0E0,0E0,0E0,0E0,0E0,0E0,0E0,0E0,0E0,0E0,0E0,0E0,0E0,0E0,0E0,0E0,0E0,0E0,0E0,0E0,0E0,0E0,0E0,0E0,0E0,0E0,0E0,0E0,0E0,0E0,0E0,0E0,0E0,0E0,0E0,0E0,0E0,0E0,0E0,0E0,0E0,0E0,0E0,0E0,0E0,0E0,0E0,0E0,0E0,0E0,0E0,0E0,0E0,0E0,0E0,0E0,0E0,0E0,0E0,0E0,0E0,0E0,0E0,0E0,0E0,0E0,0E0,0E0,0E0,0E0,0E0,0E0,0E0,0E0,0E0,0E0,0E0,0E0,0E0,0E0,0E0,0E0,0E0,0E0,0E0,0E0,0E0,0E0,0E0,0E0,0E0,0E0,0E0,0E0,0E0,0E0,0E0,0E0,0E0,0E0,0E0,0E0,0E0,0E0,0E0,0E0,0E0,0E0,0E0,0E0,0E0,0E0,0E0,0E0,0E0,0E0,0E0,0E0,0E0,0E0,0E0,0E0],"parents":[2147483647,0,0,1,1,2,2,3,3,4,4,5,5,6,6,7,7,8,8,9,9,10,10,11,11,12,12,13,13,14,14,15,15,16,16,17,17,18,18,19,19,20,20,21,21,22,22,23,23,24,24,25,25,26,26,27,27,28,28,29,29,30,30,31,31,32,32,33,33,34,34,35,35,36,36,37,37,38,38,39,39,40,40,41,41,42,42,43,43,44,44,45,45,46,46,47,47,48,48,49,49,50,50,51,51,52,52,53,53,54,54,55,55,56,56,57,57,58,58,59,59,60,60,61,61,62,62,63,63,64,64,65,65,66,66,67,67,68,68,69,69,70,70,71,71,72,72,73,73,74,74,75,75,76,76,77,77,78,78,79,79,80,80,83,83,84,84,85,85,86,86,87,87,89,89,90,90,91,91,92,92,93,93,94,94,95,95,96,96,97,97,98,98,99,99,100,100,101,101,102,102,103,103,104,104,105,105,106,106,107,107,108,108,109,109,110,110,111,111,112,112,113,113,114,114,115,115,116,116,117,117,118,118,119,119,120,120,121,121,122,122,123,123,124,124,125,125,126,126],"right_children":[2,4,6,8,10,12,14,16,18,20,22,24,26,28,30,32,34,36,38,40,42,44,46,48,50,52,54,56,58,60,62,64,66,68,70,72,74,76,78,80,82,84,86,88,90,92,94,96,98,100,102,104,106,108,110,112,114,116,118,120,122,124,126,128,130,132,134,136,138,140,142,144,146,148,150,152,154,156,158,160,162,-1,-1,164,166,168,170,172,-1,174,176,178,180,182,184,186,188,190,192,194,196,198,200,202,204,206,208,210,212,214,216,218,220,222,224,226,228,230,232,234,236,238,240,242,244,246,248,-1,-1,-1,-1,-1,-1,-1,-1,-1,-1,-1,-1,-1,-1,-1,-1,-1,-1,-1,-1,-1,-1,-1,-1,-1,-1,-1,-1,-1,-1,-1,-1,-1,-1,-1,-1,-1,-1,-1,-1,-1,-1,-1,-1,-1,-1,-1,-1,-1,-1,-1,-1,-1,-1,-1,-1,-1,-1,-1,-1,-1,-1,-1,-1,-1,-1,-1,-1,-1,-1,-1,-1,-1,-1,-1,-1,-1,-1,-1,-1,-1,-1,-1,-1,-1,-1,-1,-1,-1,-1,-1,-1,-1,-1,-1,-1,-1,-1,-1,-1,-1,-1,-1,-1,-1,-1,-1,-1,-1,-1,-1,-1,-1,-1,-1,-1,-1,-1,-1,-1,-1,-1],"split_conditions":[-5.053733E-1,-6.498248E-1,1.0004122E0,-1.5165339E0,1.0004122E0,1.5169479E0,-2.1647029E-1,9.688916E-1,1.5006542E0,-1.2288924E0,1.5006542E0,-2.4257772E-1,1.6613994E0,1.5006542E0,-2.904481E-1,-5.1143736E-1,1.2429928E0,-1.0005556E0,-1.2276309E0,6.747345E0,-1.4388433E0,-9.2331785E-1,-1.1607747E-1,-2.1647029E-1,1.2429928E0,-8.4525764E-1,-9.2331785E-1,-3.609218E-1,-3.609218E-1,1.0629586E0,1.2295086E0,-1.2070717E0,-1.0005556E0,1.1954105E0,4.95451E-1,-7.942763E-1,7.425831E-1,7.2280645E-1,1.957283E-1,1.3467124E0,-2.014507E0,-1.076472E0,1.6304661E0,-4.2809302E-1,-2.1722768E-1,-4.5110542E-1,-3.7290344E-1,-9.2331785E-1,6.747345E0,2.1169724E-1,4.95451E-1,-1.3555471E0,1.2489179E0,6.747345E0,7.9801774E-1,-2.044499E0,-1.2820438E0,-4.1633388E-1,-8.6264774E-2,1.6613994E0,1.5006542E0,1.6613994E0,1.5006542E0,-1.0300387E0,1.5006542E0,4.49086E-1,1.5006542E0,2.1169724E-1,1.4957244E0,1.5006542E0,1.3793318E0,-1.0777692E0,-1.1362003E0,-1.2820438E0,4.95451E-1,-4.9345857E-1,2.3580415E-2,-5.3406066E-1,-7.314521E-1,-6.395641E-1,-1.7580116E0,3.0738672E1,-4.27825E2,-1.1020259E0,-7.0665497E-1,7.792048E-1,-1.6077769E0,-1.8064862E0,9.427471E1,-7.0945215E-1,3.0509928E-1,-5.047072E-1,2.1169724E-1,-1.05416395E-1,7.792048E-1,-3.8368964E-1,-1.392398E0,-6.432818E-1,-1.0005556E0,6.747345E0,-2.1647029E-1,2.1146655E0,6.747345E0,-1.9674048E0,6.747345E0,-7.0945215E-1,1.3574303E0,-9.480497E-1,-1.5119504E0,-3.8368964E-1,1.3044202E0,-1.2070717E0,4.2204165E-1,-2.2557123E0,1.4797134E0,-4.0955755E-1,-3.9248288E-1,-2.582361E-1,3.2046553E-1,1.0835932E0,-8.3805203E-1,1.5169479E0,9.391418E-1,1.2280447E0,5.6699026E-1,1.9786248E0,1.6087998E0,-4.6144094E0,-1.1015409E2,-1.1314495E2,-1.9000168E2,-2.822797E2,-1.7053647E2,-1.5423497E2,-2.3352238E2,-6.798641E1,-1.2758811E2,-5.6332245E1,8.6053795E1,6.331548E1,-1.220863E2,6.7999444E0,-1.4864679E2,-2.9407886E2,-3.703894E2,-1.3642657E2,-2.7144568E2,-1.911987E2,-2.78033E2,-1.3085454E2,-2.3507845E2,-2.7488528E2,-3.4642984E2,-4.4226696E1,-2.2684016E2,-3.6707898E2,-4.3570142E2,-5.0705362E2,-3.207834E2,7.923994E1,-1.3126353E2,-6.36925E1,1.8476997E2,3.4617733E1,-4.5984512E2,1.794115E2,2.5116407E1,-8.244079E1,-1.1334845E1,7.391045E1,-2.314348E2,-5.0130047E1,-1.7553558E2,-1.9488779E2,-3.109083E2,-6.1458287E0,-2.1864558E2,-2.7364462E2,-4.6346354E0,-5.1073068E2,-2.5321109E2,-2.7242786E2,1.6707748E2,-2.9981174E2,-1.0713946E2,2.4097276E2,-2.6299924E2,2.2847859E2,5.350657E1,3.2991788E2,2.4245503E2,-2.655707E2,1.1336444E2,8.9577126E1,-1.38502E2,4.2024742E1,1.6445964E2,2.599839E2,4.5028058E2,1.7383018E2,-1.403795E2,1.6710108E1,2.832396E2,1.77112E2,-8.3011185E1,1.0360171E2,2.7920023E1,1.1344692E2,2.0933067E2,8.641619E1,1.1749812E1,-1.8149902E1,-2.3303062E2,-8.720902E0,-8.233887E1,1.1581605E1,9.039742E1,-7.254076E1,1.863761E2,-1.1059353E2,-2.1648425E2,2.4851392E2,9.371655E1,-3.8981377E1,2.027061E2,-2.1445543E2,-4.1266763E2,3.5280884E1,-2.1935912E2,-9.991405E1,-3.2466098E2,1.2914569E2,-1.703782E2,7.4757416E1,1.5228893E2,2.0100664E1,-7.893171E1,7.437941E1,-5.51881E1,-1.3167726E2,2.327987E0,-5.07153E1,3.5506756E1,-2.2213237E2,-7.148034E1,9.212251E1,2.1950179E2,-6.521901E1,5.3969326E1],"split_indices":[0,0,2,0,2,0,0,3,2,5,2,5,0,2,4,4,4,2,0,6,4,1,3,0,4,5,1,0,0,1,4,1,2,5,1,0,4,4,4,1,3,3,1,5,3,4,5,1,6,1,1,5,3,6,4,5,5,3,3,0,2,0,2,5,2,3,2,1,3,2,4,4,4,5,1,4,5,4,5,1,3,0,0,3,3,1,3,5,0,4,4,3,1,4,1,4,4,4,2,6,0,5,6,5,6,4,5,5,3,4,4,1,3,5,4,4,5,4,3,0,4,0,0,0,4,4,3,0,0,0,0,0,0,0,0,0,0,0,0,0,0,0,0,0,0,0,0,0,0,0,0,0,0,0,0,0,0,0,0,0,0,0,0,0,0,0,0,0,0,0,0,0,0,0,0,0,0,0,0,0,0,0,0,0,0,0,0,0,0,0,0,0,0,0,0,0,0,0,0,0,0,0,0,0,0,0,0,0,0,0,0,0,0,0,0,0,0,0,0,0,0,0,0,0,0,0,0,0,0,0,0,0,0,0,0,0,0,0,0,0,0,0,0,0,0,0,0,0,0],"split_type":[0,0,0,0,0,0,0,0,0,0,0,0,0,0,0,0,0,0,0,0,0,0,0,0,0,0,0,0,0,0,0,0,0,0,0,0,0,0,0,0,0,0,0,0,0,0,0,0,0,0,0,0,0,0,0,0,0,0,0,0,0,0,0,0,0,0,0,0,0,0,0,0,0,0,0,0,0,0,0,0,0,0,0,0,0,0,0,0,0,0,0,0,0,0,0,0,0,0,0,0,0,0,0,0,0,0,0,0,0,0,0,0,0,0,0,0,0,0,0,0,0,0,0,0,0,0,0,0,0,0,0,0,0,0,0,0,0,0,0,0,0,0,0,0,0,0,0,0,0,0,0,0,0,0,0,0,0,0,0,0,0,0,0,0,0,0,0,0,0,0,0,0,0,0,0,0,0,0,0,0,0,0,0,0,0,0,0,0,0,0,0,0,0,0,0,0,0,0,0,0,0,0,0,0,0,0,0,0,0,0,0,0,0,0,0,0,0,0,0,0,0,0,0,0,0,0,0,0,0,0,0,0,0,0,0,0,0,0,0,0,0,0,0,0,0,0,0,0,0],"sum_hessian":[2.7916E4,9.308E3,1.8608E4,8.145E3,1.163E3,1.3296E4,5.312E3,1.164E3,6.981E3,8.31E2,3.32E2,1.1634E4,1.662E3,6.64E2,4.648E3,9.43E2,2.21E2,5.985E3,9.96E2,1.64E2,6.67E2,1.66E2,1.66E2,4.13E3,7.504E3,8.31E2,8.31E2,3.32E2,3.32E2,1.632E3,3.016E3,4.79E2,4.64E2,1.49E2,7.2E1,9.96E2,4.989E3,3.32E2,6.64E2,1.6E2,4E0,5.7E1,6.1E2,3.3E1,1.33E2,1.17E2,4.9E1,1.022E3,3.108E3,5.298E3,2.206E3,1.64E2,6.67E2,1.64E2,6.67E2,1.66E2,1.66E2,1.66E2,1.66E2,1.17E3,4.62E2,2.127E3,8.89E2,1.01E2,3.78E2,6.6E1,3.98E2,1.14E2,3.5E1,5.3E1,1.9E1,8.3E2,1.66E2,4.185E3,8.04E2,2.72E2,6E1,4.69E2,1.95E2,1.29E2,3.1E1,1E0,3E0,4E1,1.7E1,5.82E2,2.8E1,3.2E1,1E0,8.1E1,5.2E1,8.1E1,3.6E1,7E0,4.2E1,3.26E2,6.96E2,3.005E3,1.03E2,2.73E3,2.568E3,1.242E3,9.64E2,4.3E1,1.21E2,5.09E2,1.58E2,1.6E2,4E0,4.92E2,1.75E2,6E0,1.6E2,2.3E1,1.43E2,9.8E1,6.8E1,1.12E2,5.4E1,1.06E3,1.1E2,2.37E2,2.25E2,1.981E3,1.46E2,4.28E2,4.61E2,6.6E1,3.5E1,3.24E2,5.4E1,4.7E1,1.9E1,3.32E2,6.6E1,3.8E1,7.6E1,2.7E1,8E0,4.6E1,7E0,6E0,1.3E1,1.92E2,6.38E2,3.8E1,1.28E2,8.42E2,3.343E3,4.37E2,3.67E2,1.47E2,1.25E2,2E0,5.8E1,3.06E2,1.63E2,7E0,1.88E2,1.19E2,1E1,4E0,2.7E1,3.9E1,1E0,1.3E1,4E0,4.16E2,1.66E2,3E0,2.5E1,1.1E1,2.1E1,4E1,4.1E1,1.3E1,3.9E1,7.6E1,5E0,1.6E1,2E1,2E0,5E0,3.4E1,8E0,3.15E2,1.1E1,1.28E2,5.68E2,1.394E3,1.611E3,2.4E1,7.9E1,2.654E3,7.6E1,3.62E2,2.206E3,1.081E3,1.61E2,9.4E2,2.4E1,3E0,4E1,1.18E2,3E0,1.06E2,4.03E2,7.4E1,8.4E1,1.03E2,5.7E1,1E0,3E0,2.1E2,2.82E2,1.07E2,6.8E1,2E0,4E0,1.34E2,2.6E1,3E0,2E1,1.39E2,4E0,8.1E1,1.7E1,1.6E1,5.2E1,8.7E1,2.5E1,1.9E1,3.5E1,6.73E2,3.87E2,5.7E1,5.3E1,1.91E2,4.6E1,1.1E2,1.15E2,1.561E3,4.2E2,9E1,5.6E1,3.5E2,7.8E1,1.82E2,2.79E2],"tree_param":{"num_deleted":"0","num_feature":"8","num_nodes":"249","size_leaf_vector":"1"}},{"base_weights":[-1.6482909E0,-2.1010186E3,1.0485447E3,-2.2811016E3,-8.3894244E2,1.474504E3,-1.7713718E1,-1.5246871E3,-2.5835093E3,-2.9973398E2,-2.1836345E3,1.6292684E3,3.9082477E2,-1.0620815E3,1.3167805E2,-1.1507391E3,-1.8973264E3,-2.7485632E3,-1.9212157E3,3.476828E2,-6.234856E2,-1.845861E3,-2.5083325E3,2.4187683E3,1.4349103E3,8.782022E2,-9.702247E1,-5.813565E2,-1.5396172E3,4.6248166E2,-1.9918219E2,-1.280773E3,-4.6382053E2,-1.9919438E3,-9.128932E2,-2.8168535E3,-1.8330848E3,-1.597496E3,-2.7242595E3,1.1041355E3,9.7478424E1,-5.683916E2,-2.7118743E3,-9.980807E2,-1.9880892E3,-2.5613843E3,-9.2980914E2,2.5063633E3,-1.0675298E3,1.2843954E3,2.4735352E3,1.7709674E3,6.563692E2,5.814594E2,-2.178028E2,-1.0824054E3,-7.682639E1,-1.9471125E3,-1.1229025E3,1.1015977E3,1.8479968E2,-3.4575748E2,6.7866675E2,-7.1265906E2,-1.4542756E3,-1.4259952E3,-2.9958115E2,-1.4034563E3,-2.15294E3,-3.769478E2,-1.7272252E3,-2.7178672E3,-3.403685E3,-1.5116873E3,-2.4504504E3,-1.5424835E3,-3.385313E3,-2.936771E3,-2.356432E3,1.2797975E3,-2.0703193E3,5.0837192E2,-2.952948E2,2.1560376E2,-6.573759E2,-4.801987E2,-1.7052992E3,-1.2025524E3,9.7038605E2,-2.129357E3,-9.614962E2,-2.4204944E3,-3.4869568E3,1.2972119E2,-1.7568872E3,2.254418E3,3.4235552E3,-3.0900928E2,-4.6016754E2,1.0898607E3,1.9542308E3,3.694061E3,2.1949583E3,2.3040183E3,1.4759685E3,4.6687894E2,1.8376683E3,1.0263861E3,3.5477255E2,-3.8286957E2,5.390601E2,-4.829434E2,-1.3804858E3,5.647811E2,-4.8097845E2,-2.1740547E3,-1.1465319E3,-1.2320227E3,3.8923584E2,1.5174976E3,2.9120175E2,-1.306653E2,1.0432219E3,1.6763931E2,-1.0032616E3,2.1148247E3,3.0897723E2,-1.426702E2,-5.821811E1,-1.03014114E2,-1.5798749E2,-1.0189211E2,-2.1269304E2,-4.876454E1,5.3788765E1,-1.3031499E2,-2.5180191E2,-2.2970067E2,-1.7068596E2,-1.5058537E2,-8.747236E0,-1.8447092E2,3.758073E1,-3.385665E2,-2.586401E2,-2.9281516E2,-3.543685E2,-2.4527686E2,-1.2581592E2,-2.1624495E2,-3.1463712E2,-9.3966324E1,-1.6896509E2,-4.1465854E2,-2.5453625E2,-2.5196013E2,-3.6680197E2,-4.620434E1,-2.4799028E2,1.4021503E2,-3.3365695E2,-3.1374884E2,-6.687669E1,1.5454646E1,1.4059077E2,-9.3782684E1,4.6879894E1,5.744472E1,-8.035315E1,-1.3527988E2,-5.451415E1,